{"network_layers.0.weight": [[-0.03758658468723297, 5.872697353363037, 9.68237590789795, -11.517050743103027, 5.21375846862793, -5.7356953620910645, 6.60094690322876, -2.982813596725464, -3.9508841037750244, 0.04548060894012451], [-3.178710460662842, 1.9026895761489868, 0.6980260014533997, 2.8695952892303467, -4.8716936111450195, -3.640484571456909, -0.42436888813972473, -1.4903861284255981, -1.4713104963302612, -8.83827018737793], [-0.9279217720031738, 5.104356288909912, -1.1724275350570679, 1.6037614345550537, 6.758892059326172, -4.094305515289307, -5.170950889587402, -4.528709888458252, 0.6723957061767578, -7.47057580947876], [2.4764487743377686, 5.824526786804199, 5.441677093505859, 9.929884910583496, 3.4858899116516113, -2.223358154296875, -6.995566368103027, -6.042209148406982, -9.950557708740234, -18.43597412109375], [0.11024592816829681, -0.32194623351097107, -0.014921246096491814, -0.1118401437997818, -0.3480257987976074, -0.04946102946996689, 0.007189282216131687, -0.5507740378379822, -0.08826654404401779, -0.09702787548303604], [0.13651880621910095, -0.7930818796157837, -0.5620454549789429, 0.4334508776664734, -0.5077555179595947, -0.3806764781475067, -0.9876249432563782, -0.8778672218322754, -0.6079105734825134, -0.499215304851532], [-0.7804118394851685, -0.04148983955383301, -0.5688024759292603, 0.07397714257240295, 0.13538135588169098, -0.3826025724411011, -0.402168869972229, -0.02666180208325386, -0.4641481935977936, 0.22008953988552094], [-0.6398857235908508, -0.3877411186695099, 0.2123616337776184, -0.07633382827043533, -0.2637588679790497, -0.26494666934013367, -0.1349940001964569, -0.1617957055568695, -0.3664105534553528, 0.1686726212501526], [-0.11117862910032272, 0.1382303088903427, -0.12904000282287598, -0.011573180556297302, 0.08892311155796051, -0.39060747623443604, -0.10343585163354874, -0.2630392909049988, -0.2951642572879791, -0.14964088797569275], [-0.20140986144542694, -0.09465864300727844, 0.07053349167108536, -0.06502902507781982, -0.2990393340587616, -0.20648670196533203, 0.013213202357292175, -0.34917697310447693, -0.24573636054992676, -0.2249426543712616], [-1.1989526748657227, -0.33648523688316345, 1.1431506872177124, -0.2948301136493683, -0.3593580722808838, -0.659555971622467, -0.17025014758110046, -1.4131313562393188, -2.663882255554199, -1.6907316446304321], [0.062257446348667145, 0.07726508378982544, -0.15946203470230103, -0.1457827091217041, -0.15790782868862152, -0.24031201004981995, -0.09108797460794449, -0.05947296321392059, -0.345659077167511, -0.40681180357933044], [-0.3379712998867035, -0.05519243702292442, 0.05227924510836601, -0.4064103662967682, -0.381229430437088, -0.2721806466579437, -0.09461577236652374, -0.09338841587305069, -0.1370474100112915, -0.26505550742149353], [-0.021653171628713608, -0.16129304468631744, -0.09712781757116318, 0.1072201281785965, -0.2984875738620758, -0.009090323932468891, -0.1642914116382599, -0.19543205201625824, -0.1410055309534073, -0.15328752994537354], [0.0005744413356296718, -0.18161113560199738, -0.08443742990493774, -0.14835304021835327, 0.0393589548766613, -0.01967114396393299, -0.13573820888996124, -0.35829198360443115, -0.35476401448249817, -0.16789425909519196], [-0.4190293848514557, -0.011339808814227581, -0.0018894786480814219, -0.21645495295524597, -0.017391148954629898, -0.08241955190896988, -0.3144489526748657, -0.024026405066251755, -0.04953552782535553, -0.09440942108631134], [-0.12885268032550812, -0.24904479086399078, -0.10836663842201233, -0.1456216722726822, 0.10566886514425278, -0.09344404935836792, -0.009393459185957909, 0.1976451724767685, -0.1518886685371399, -0.1323496699333191], [0.7112042903900146, -8.177921295166016, -2.7827491760253906, -3.505075693130493, 4.655712127685547, -4.365260124206543, -3.067962408065796, -5.338054180145264, -0.7745644450187683, 4.13393497467041], [-1.064906358718872, 0.1540858894586563, 7.562344074249268, 7.897251129150391, -5.466206073760986, -6.813769340515137, 2.0255355834960938, 3.818311929702759, -20.215635299682617, 0.9546040296554565], [-0.7635613679885864, -3.7339046001434326, -4.496402740478516, -2.686102867126465, -1.8409749269485474, -1.549242615699768, -3.8147127628326416, -3.54288649559021, -0.9985426664352417, -4.800811290740967], [-0.6595467329025269, -9.188305854797363, -1.1531027555465698, -2.9003658294677734, 5.767679691314697, -3.6832406520843506, 1.8972282409667969, -5.643954277038574, 0.36076974868774414, 4.587328910827637], [-0.09100162237882614, 0.058776821941137314, -0.03741832450032234, -0.1407802551984787, -0.1778087168931961, -0.13559134304523468, -0.24927489459514618, -0.03208661079406738, 0.14474399387836456, 0.09361789375543594], [-2.9534754753112793, 2.0553226470947266, 3.861175298690796, -5.377182483673096, -1.749629020690918, 0.292105495929718, 3.5345993041992188, 2.890537738800049, -4.028964042663574, -3.3853116035461426], [-0.8171578645706177, -0.5833226442337036, -0.5621774196624756, -0.9917039275169373, -0.09833598881959915, -0.8670055270195007, 0.12512630224227905, -0.11008962243795395, -0.3315069079399109, 0.572364330291748], [-0.745690107345581, -0.7419812083244324, -0.3885634243488312, -0.9710226655006409, -0.5078631639480591, 0.06949445605278015, -0.1777917742729187, -0.4438196122646332, -0.43089690804481506, -0.6654435992240906], [-1.12040114402771, -8.1962308883667, -10.819807052612305, -4.487818717956543, -1.901939868927002, -3.4099159240722656, 6.711804389953613, 8.175980567932129, 6.523586273193359, 12.256004333496094], [0.12054715305566788, -0.14018478989601135, -0.3183920085430145, 0.01627439819276333, 0.06555014103651047, -0.32558637857437134, -0.04169981926679611, -0.10273734480142593, -0.079116091132164, -0.27225688099861145], [-0.508780837059021, -0.2091766744852066, 0.08688963949680328, 1.201942801475525, -1.1154412031173706, -2.241823434829712, 0.6783688068389893, -1.308318018913269, -1.2509623765945435, -2.699822187423706], [-0.2616332769393921, 0.08060531318187714, -0.17599205672740936, 0.16745144128799438, 0.18155831098556519, -0.19343237578868866, 0.003468320006504655, -0.3267594277858734, 0.04877854883670807, -0.05655426159501076], [-1.8505020141601562, 5.1486406326293945, -2.0525448322296143, 0.16547727584838867, 8.052968978881836, -3.0777370929718018, -1.0852046012878418, 2.001081705093384, 5.975610256195068, -9.650264739990234], [-0.633885383605957, -0.11396301537752151, -0.835378110408783, -0.802114725112915, 0.3931090831756592, -0.6179962754249573, -0.5923982858657837, -0.1941462904214859, -0.5078263282775879, -0.07567055523395538], [-3.5765349864959717, 0.9046345353126526, -2.5856735706329346, -1.2586156129837036, 0.42641785740852356, 0.5034912824630737, -0.745572566986084, 0.217742457985878, 0.37092503905296326, -0.330620676279068], [-0.06308651715517044, -0.1708678901195526, 0.02628718689084053, -0.17208054661750793, -0.2790378928184509, -0.22814446687698364, 0.02866584248840809, -0.05854370445013046, 0.11603136360645294, -0.0065834540873765945], [-0.23051266372203827, 0.037169117480516434, 0.039561036974191666, -0.3736533224582672, -0.38885846734046936, 0.046427566558122635, 3.4854583645937964e-05, -0.4322327971458435, 0.031345173716545105, -0.470793753862381], [-1.2924026250839233, -0.8110409379005432, -2.0170950889587402, -2.2375314235687256, -1.5120182037353516, -0.9101172685623169, 0.3615567684173584, 1.1562764644622803, -1.6993519067764282, 0.2660718858242035], [-0.27608928084373474, -0.044180165976285934, 0.16071446239948273, -0.27915114164352417, -0.3132352828979492, -0.34421125054359436, -0.30894631147384644, -0.2841342091560364, -0.12177647650241852, 0.05219530686736107], [-3.666639804840088, 1.7219713926315308, 0.1857065111398697, -2.5215885639190674, 3.3795952796936035, -1.6376368999481201, -2.3747611045837402, 2.404289722442627, 0.23882272839546204, -5.537205219268799], [2.3739311695098877, 2.7902424335479736, -1.0202150344848633, 3.4652111530303955, 2.8006720542907715, -4.263362407684326, -3.637700080871582, -1.007367491722107, -6.947137355804443, -6.51511287689209], [-0.2668221592903137, -0.2836408317089081, -0.21040938794612885, -0.5122254490852356, 0.04536867514252663, -0.4828636050224304, -0.11360084265470505, -0.37440526485443115, -0.10693629086017609, -0.12720423936843872], [-0.7299203276634216, -0.017134498804807663, 0.028252525255084038, -0.5439420938491821, -0.02164188027381897, -0.19177795946598053, -0.08087722212076187, -0.017944682389497757, -0.48078593611717224, -0.259555459022522], [-0.10200439393520355, -0.44118744134902954, -0.5208712220191956, -0.40374892950057983, -0.008039330132305622, -0.2871014475822449, -0.19599649310112, -0.40244990587234497, -0.3938868045806885, -0.42230847477912903], [-5.7486443519592285, -0.9585005640983582, -3.1091015338897705, -10.21518325805664, 2.8190953731536865, 1.2722665071487427, 8.047830581665039, 2.951784610748291, 1.7416044473648071, 10.862122535705566], [-1.2690585851669312, -0.46494153141975403, -0.7860594987869263, -0.6168150305747986, -0.8989143371582031, -0.307632178068161, -0.07590736448764801, -0.7483922243118286, -1.1649469137191772, 0.6676956415176392], [-2.257213592529297, 1.804599404335022, 8.103409767150879, 3.6961140632629395, 4.121709823608398, -0.41311898827552795, -6.781522274017334, -4.448362350463867, -7.13811731338501, -8.724909782409668], [-0.0028815190307796, -0.06345554441213608, -0.036259494721889496, 0.11453475058078766, -0.3726089298725128, -0.28107285499572754, -0.12080816179513931, -0.3698226511478424, -0.15478597581386566, -0.32504576444625854], [-2.54970383644104, 6.140904903411865, 0.7107957601547241, -5.341007709503174, -2.657350778579712, -2.518641233444214, -7.646021842956543, 8.772582054138184, -1.052382469177246, -2.3978264331817627], [-0.14203518629074097, 0.13389381766319275, -0.1704546958208084, 0.05283057689666748, -0.12028137594461441, -0.11991709470748901, -0.26886722445487976, -0.03617231547832489, -0.3373757302761078, -0.2254517525434494], [-0.38263964653015137, 0.003113799262791872, -0.05021276697516441, 0.07582824677228928, 0.030930446460843086, 0.03255746513605118, 0.05765041708946228, -0.03462984785437584, -0.23613479733467102, -0.18667922914028168], [-0.14867623150348663, -0.09326735138893127, -0.3247523605823517, 0.015323970466852188, -0.44502153992652893, -0.23796845972537994, 0.02880670316517353, -0.3527378439903259, 0.03684443607926369, -0.0594172328710556], [-0.10479095578193665, -0.35053303837776184, 0.19663044810295105, 0.02574106492102146, -0.43389764428138733, -0.026527296751737595, -0.3079853653907776, -0.2583543360233307, -0.2998799979686737, -0.013367952778935432], [-0.603807806968689, -0.10404849052429199, -0.12880602478981018, -0.34797239303588867, -0.15889839828014374, -0.4368673264980316, 0.17825374007225037, -0.6476116180419922, -0.16885828971862793, -0.6591663360595703], [-0.6095948815345764, -0.19066187739372253, 0.334668904542923, 0.04288443922996521, 0.015537295490503311, -0.7823070287704468, -0.30408376455307007, 0.0007588985026814044, -0.06666553020477295, -0.08257941156625748], [-2.0402235984802246, -10.444445610046387, -9.745903015136719, -10.956557273864746, -0.5236772894859314, 0.21844594180583954, 7.722487449645996, 8.426948547363281, 5.88250207901001, 9.1494722366333], [0.09972193837165833, -0.05621515214443207, -0.20060808956623077, -0.19355104863643646, 0.09574983268976212, -0.16998960077762604, -0.2607182264328003, -0.2757117450237274, 0.03884674236178398, -0.3131771385669708], [-0.025760892778635025, -0.16895261406898499, -0.03475969657301903, -0.0925583690404892, -0.21225395798683167, -0.0255966167896986, -0.2207678258419037, -0.01112923864275217, -0.3343714475631714, 0.07920573651790619], [-0.23810061812400818, -0.03340287134051323, -0.45153141021728516, -0.33418235182762146, -0.4763804078102112, -0.3653644919395447, -0.1943110227584839, -0.301761269569397, -0.30040115118026733, -0.5444651246070862], [-0.11376632004976273, 0.06768473982810974, -0.5451999306678772, -0.29516729712486267, -0.04875023290514946, -0.11700574308633804, -0.4108686149120331, -0.18233929574489594, -0.08070378750562668, -0.8924692869186401], [-0.15044832229614258, -0.33950790762901306, -0.11864938586950302, 0.08433964103460312, 0.068688303232193, -0.6832166314125061, 0.04964780434966087, -0.06733681261539459, -0.41030311584472656, -0.675845205783844], [-1.1147894859313965, -1.300803780555725, -0.5782281160354614, -1.7029211521148682, 0.09073188155889511, -0.5135108828544617, -0.2446732521057129, -0.9414215087890625, 0.5595626831054688, 0.38088566064834595], [-2.2535698413848877, -6.040333271026611, 4.501127243041992, 4.7210564613342285, -2.81723690032959, -4.849293231964111, -5.705636501312256, -7.406588554382324, -0.6019840240478516, -6.41239070892334], [-0.10248720645904541, -0.1944320648908615, 0.03262541815638542, -0.19648945331573486, 0.038225553929805756, -0.1154942661523819, -0.14814382791519165, -0.0465337410569191, -0.24979321658611298, -0.4511931538581848], [0.06535044312477112, -0.26716628670692444, 0.01950850337743759, -0.3491990566253662, -0.44241243600845337, -0.3634735643863678, -0.493605375289917, -0.3508339822292328, -0.4503188729286194, -0.1007511094212532], [-0.8931188583374023, -0.8308558464050293, -0.7355456352233887, -0.38675326108932495, -0.7270456552505493, -0.22885805368423462, -1.0707749128341675, -0.41543030738830566, -0.03171740844845772, -0.41165876388549805], [3.04013729095459, 10.605912208557129, 4.555135250091553, -13.104171752929688, 1.5844224691390991, -9.634071350097656, 0.5386269688606262, -9.202191352844238, 6.334598541259766, -8.72606086730957], [-4.09057092666626, -0.7475253939628601, -1.4604209661483765, -2.950078248977661, 1.622295618057251, 0.19568146765232086, 1.1870144605636597, -0.7029204964637756, 2.177696943283081, 1.8094881772994995], [-0.061636731028556824, -0.1277984082698822, 0.17622293531894684, -0.06624098867177963, -0.23947955667972565, -0.17276336252689362, -0.04157652705907822, -0.02808305062353611, -0.03847255930304527, 0.12462866306304932], [-0.8252051472663879, -0.6183847188949585, -1.0741331577301025, -0.7116837501525879, -0.539303719997406, -0.03301671892404556, -0.05849900096654892, -0.0648188591003418, 0.3787964880466461, -0.08059914410114288], [0.369881272315979, 5.6597442626953125, 2.39756441116333, 1.4519267082214355, 3.052002429962158, -3.7147884368896484, 0.5669981837272644, -3.4346678256988525, -3.8939476013183594, 0.48589977622032166], [-6.042165279388428, 3.559054374694824, 3.021454334259033, -3.9442639350891113, 4.63640022277832, 1.261557936668396, -2.200409412384033, 6.9263916015625, 1.3443962335586548, 2.26523756980896], [-2.3581414222717285, -1.7186517715454102, 0.3449018597602844, 3.7099175453186035, 11.865117073059082, -7.9083991050720215, -2.5840163230895996, 0.7371811866760254, -0.2331693321466446, 1.9464610815048218], [-5.004593372344971, -1.2185907363891602, 0.8292294144630432, -5.358739852905273, 3.06786847114563, 0.6969887018203735, 1.6545828580856323, -0.6858018040657043, 4.723387718200684, 7.420402526855469], [-0.3125017583370209, -0.36220479011535645, 0.06514615565538406, -0.3113173842430115, -0.06590725481510162, 0.048252612352371216, -0.21305391192436218, 0.09469044953584671, -0.2735646367073059, -0.21106699109077454], [-0.056818608194589615, -0.012849303893744946, 0.534693717956543, 0.7697432637214661, 0.5357891321182251, -0.646928071975708, -0.17499536275863647, 0.03031890094280243, -0.8710678815841675, -0.10983314365148544], [-1.186297059059143, -0.5792155861854553, -2.0392754077911377, 0.48805224895477295, -0.7652912735939026, -0.9513916373252869, -0.5541720986366272, -1.2928791046142578, -2.120218276977539, 0.46577250957489014], [0.049818553030490875, -0.04429617524147034, 0.11995475739240646, -0.3854251503944397, -0.5352921485900879, -0.3243106007575989, 0.07477667927742004, -0.5960771441459656, -0.4275331199169159, -0.4271380305290222], [-0.5207778811454773, -0.023005006834864616, -3.1818156242370605, 2.051541328430176, -2.700282096862793, -5.871615886688232, 1.8836784362792969, 0.16625253856182098, -1.7114415168762207, -2.9215245246887207], [-0.0571848601102829, -0.045421481132507324, -0.17821720242500305, -0.37454190850257874, -0.4233892858028412, -0.11128009855747223, -0.1094508096575737, -0.2625056505203247, -0.39280837774276733, -0.2919099032878876], [0.004380001686513424, -0.06706566363573074, -0.2138625532388687, -0.08489885181188583, -0.038869719952344894, -0.27437394857406616, -0.09952344745397568, -0.19009916484355927, -0.30070987343788147, 0.048186469823122025], [-0.22896544635295868, -0.14552098512649536, -0.24776862561702728, -0.19508202373981476, -0.12688881158828735, -0.10375525802373886, -0.11677956581115723, -0.10803725570440292, -0.10440067946910858, -0.5362128019332886], [-0.1928880214691162, -0.2847365438938141, 0.07050300389528275, -0.16454416513442993, 0.10976710915565491, -0.248643159866333, 0.13963890075683594, 0.007097079884260893, 0.08344200998544693, -0.2261354923248291], [-0.15289446711540222, 0.03465988487005234, -0.4149218201637268, 0.015181630849838257, 0.02387470193207264, -0.322258323431015, -0.23797807097434998, 0.03394249081611633, -0.26008152961730957, 0.37154528498649597], [-2.749473810195923, -10.48666000366211, -4.749166011810303, -4.221707344055176, -5.314088821411133, 2.0417497158050537, 5.15476655960083, 1.1193764209747314, 3.799797773361206, 5.756496906280518], [-0.08905427902936935, -0.10877684503793716, -0.2137736976146698, -0.24812698364257812, 0.0972394272685051, -0.01886911131441593, 0.06489816308021545, 0.14488554000854492, 0.00525604747235775, 0.027269693091511726], [-6.9238433837890625, 0.5549341440200806, -4.041586875915527, -3.584108829498291, 3.2493045330047607, 0.9858097434043884, 4.927278995513916, 5.189020156860352, 5.459043502807617, 6.0313239097595215], [-0.11382437497377396, -0.030307868495583534, -0.12486626207828522, -0.2199774980545044, -0.05100768059492111, -0.18355600535869598, 0.025455981492996216, -0.32525068521499634, -0.5393973588943481, -0.32660630345344543], [-0.21411854028701782, -6.1320390701293945, -10.86938762664795, 1.139180064201355, 6.702054977416992, -7.040719032287598, 0.19366127252578735, 5.624843120574951, 3.6265244483947754, -8.124862670898438], [-2.201935052871704, -7.344301223754883, 3.1969823837280273, 3.715237855911255, -3.8044092655181885, -3.0731775760650635, -4.988622665405273, -7.6040873527526855, 2.756342649459839, -3.1597909927368164], [-2.072699785232544, -5.399593830108643, -5.330813884735107, -8.399456024169922, -17.5255069732666, 1.6740663051605225, 4.1345014572143555, 4.822469711303711, 7.818931579589844, -6.6826934814453125], [-0.3283762037754059, -0.050762441009283066, -0.4025128185749054, 0.00015225894458126277, -0.17082592844963074, 0.0013761784648522735, -0.17929498851299286, -0.10030734539031982, -0.14089298248291016, -0.1954771876335144], [-0.04296709969639778, -0.30077359080314636, 0.5358046889305115, -0.9216305017471313, -0.6951814293861389, -0.8158920407295227, -0.05106241628527641, -0.17001573741436005, -1.1306681632995605, -0.9319099187850952], [-0.4275454580783844, -0.279111385345459, -0.12014051526784897, -0.17652980983257294, -0.03478255122900009, 0.042504824697971344, 0.10398446023464203, 0.0030647122766822577, 0.1008671298623085, -0.03354061394929886], [-0.058697666972875595, -0.21004636585712433, -0.3136465847492218, 0.06854073703289032, -0.005152118857949972, -0.25206130743026733, -0.08104973286390305, -0.039605166763067245, -0.3025934398174286, -0.04489293321967125], [-0.37923377752304077, -0.022772757336497307, -0.06916279345750809, -0.1491420567035675, -0.7163670063018799, -0.19028149545192719, -0.6862684488296509, 0.09863597899675369, -0.689593493938446, 0.11069788038730621], [-0.3037644624710083, -0.22609978914260864, 0.05940498784184456, -0.1785033643245697, -0.06602001190185547, -0.29512274265289307, -0.12341132760047913, 0.025963177904486656, -0.034786421805620193, -0.022042959928512573], [-0.019037604331970215, -0.16407376527786255, -0.22386202216148376, -0.18482370674610138, 0.2859075963497162, -0.24470943212509155, -0.31343376636505127, -0.4079861342906952, -0.3691641390323639, -0.23244594037532806], [-3.2876884937286377, -0.8406051397323608, -3.0567686557769775, -5.0653276443481445, -0.4499945044517517, -0.6465412378311157, 0.7030388116836548, 1.324124813079834, 3.16314697265625, 3.793483018875122], [-3.90755558013916, -6.61234712600708, -6.5618205070495605, -9.552990913391113, -15.010168075561523, 4.199337482452393, 5.471152305603027, 6.367967128753662, 8.124595642089844, 13.062186241149902], [-0.03827602416276932, -0.39078861474990845, -0.22720986604690552, -0.18400393426418304, -0.008241502568125725, -0.04871044307947159, -0.07085113227367401, -0.027918703854084015, -0.5036557912826538, -0.13674025237560272], [-0.27168363332748413, -0.4599641263484955, 0.01824113354086876, 0.12072724848985672, -0.2919178307056427, -0.032965634018182755, 0.028523525223135948, 0.1020091325044632, -0.18790894746780396, -0.169170543551445], [-2.0753061771392822, -1.266832709312439, 0.7156590819358826, 5.747684001922607, -2.4728853702545166, -15.850397109985352, 6.566710472106934, 1.4365569353103638, 1.2469141483306885, -5.204382419586182], [-0.2363315373659134, -0.06579303741455078, -0.1930008977651596, 0.0836683139204979, -0.014001362025737762, -0.31793543696403503, -0.04528111591935158, -0.15071511268615723, -0.22869685292243958, -0.18504957854747772], [-3.626946210861206, -2.4732022285461426, -2.3570895195007324, -0.08633174747228622, 0.07084322720766068, -0.6438124775886536, 1.3941595554351807, 3.2141711711883545, 1.840928077697754, 1.4969180822372437], [3.664247512817383, 5.06080436706543, 5.57904052734375, 8.938594818115234, 20.711057662963867, -4.402747631072998, -5.111567497253418, -5.467550754547119, -9.65032958984375, -18.145343780517578], [0.06334426254034042, -1.0487772226333618, 0.030597617849707603, -0.9993408918380737, 0.32256725430488586, -0.6319920420646667, -1.453310251235962, -0.6153967380523682, -1.1737704277038574, -0.24690045416355133], [-2.219271659851074, 4.937533855438232, 7.081629753112793, 4.392582416534424, -5.023146629333496, -0.6696163415908813, -2.292470932006836, -12.533378601074219, 1.6290031671524048, -0.46357330679893494], [-0.2249201238155365, -0.9657900333404541, -0.09454513341188431, -0.0596541091799736, -0.3369625508785248, -0.502362847328186, -1.035545825958252, -0.8290078043937683, -0.3226507902145386, 0.1271582990884781], [-3.806572675704956, 0.37006452679634094, 1.1212981939315796, -1.3033424615859985, -1.008521556854248, -1.2821009159088135, -1.657149314880371, 3.4233999252319336, 6.842963218688965, 9.619251251220703], [-0.15852071344852448, -0.5835325717926025, -0.5306235551834106, 0.08702988177537918, -0.2167321741580963, -0.2587285339832306, -0.8368690609931946, -0.533557116985321, -0.39468613266944885, -0.6118867993354797], [-0.3828408122062683, -0.20498214662075043, -0.07584565877914429, -0.04677892103791237, -0.3043743371963501, -0.48902028799057007, -0.074282206594944, -0.06730032712221146, -0.1252620667219162, -0.19599531590938568], [-4.496865272521973, 7.029228687286377, 4.942573070526123, 2.6548869609832764, -0.9104026556015015, -0.33661845326423645, -0.7253462076187134, -7.809762954711914, 1.3844716548919678, -2.472745180130005], [-4.012334823608398, -0.31004589796066284, -1.7696080207824707, 1.8225940465927124, 0.8360427021980286, 1.0288079977035522, -4.196981906890869, 1.5472841262817383, 1.5223575830459595, -1.7044579982757568], [-0.5268202424049377, -0.7242456078529358, -0.12962250411510468, -0.11580296605825424, -0.4510520398616791, -0.13570810854434967, -0.3791787624359131, -0.3505840599536896, 0.009462007321417332, -0.4894254505634308], [0.01699301041662693, -6.200734615325928, -20.286354064941406, -5.808132648468018, -5.550509929656982, -0.12571150064468384, 6.594625473022461, 5.65781307220459, 2.594754219055176, 6.556933879852295], [1.4859037399291992, 4.065257549285889, 2.872668743133545, -5.0675554275512695, -3.535837173461914, -4.59295129776001, -5.915015697479248, -5.240793228149414, 2.24843692779541, -5.631609916687012], [-2.9751601219177246, -1.162086844444275, -0.13459613919258118, -1.5966216325759888, 0.3323412537574768, -0.7294062972068787, -2.412415027618408, -0.28644344210624695, 0.713563859462738, 0.34432724118232727], [0.06413350254297256, -0.2057674080133438, 0.12692272663116455, -0.02709713764488697, 0.13350339233875275, -0.5036909580230713, -0.3890848457813263, -0.2626953423023224, -0.6547880172729492, -0.2898060977458954], [-0.1533491611480713, -0.26085036993026733, 0.12897750735282898, -0.040563806891441345, -0.33977219462394714, -0.1669350564479828, -0.326493501663208, -0.24045085906982422, -0.12685976922512054, 0.04003547877073288], [-0.10295607149600983, -0.6045705676078796, -0.16990740597248077, 0.112732894718647, -0.09367416799068451, -0.30731940269470215, -0.2093835324048996, 0.0604257695376873, -0.5094112753868103, -0.2847059965133667], [-0.21754829585552216, 0.5034487843513489, -0.06797070056200027, -0.20499968528747559, 0.5152766108512878, -0.4678034782409668, -0.26634910702705383, -0.09550629556179047, -0.36178848147392273, -0.519625186920166], [-0.14622601866722107, -0.003321876749396324, -0.31894156336784363, -0.2700168788433075, 0.1365671008825302, -0.4390188455581665, -0.16310317814350128, -0.1845119297504425, -0.03743594512343407, -0.29318004846572876], [-3.5381596088409424, 3.8452742099761963, 0.684810221195221, 7.636980056762695, 5.164265155792236, -3.6835947036743164, -1.3079257011413574, -10.129754066467285, -2.593383312225342, 3.1010518074035645], [-0.440732479095459, -0.3758848011493683, 0.1321086585521698, -0.471274733543396, -0.030678166076540947, -0.2893424928188324, -0.346980482339859, -0.10708773881196976, -0.030816970393061638, 0.16942740976810455], [-0.224832683801651, -0.013163672760128975, -0.3304876387119293, 0.10868974030017853, -0.2822689116001129, -0.1305387169122696, 0.12582162022590637, -0.39533373713493347, 0.022750331088900566, -0.15326328575611115], [-0.5735524296760559, -0.6114656925201416, -0.44249022006988525, 0.060693759471178055, -0.37861302495002747, -1.0982073545455933, -0.7541154026985168, 0.14183324575424194, -1.1613218784332275, -0.22103729844093323], [-0.08586803078651428, 0.5199201107025146, -0.4695575535297394, -0.30835023522377014, 0.3268873989582062, -0.16706685721874237, 0.20323795080184937, -0.09788736701011658, -0.1649169772863388, 0.14277663826942444], [-8.344700813293457, 9.120889663696289, 2.9673619270324707, 3.3688645362854004, 9.434419631958008, -6.926774501800537, -1.5739011764526367, 4.37008810043335, 2.1123647689819336, -1.6694602966308594], [0.330276757478714, 0.36878371238708496, -4.189478397369385, -0.9376683831214905, -5.30640983581543, -7.205015182495117, -1.5555700063705444, -0.9578020572662354, 1.5434311628341675, 8.582576751708984], [-0.27170446515083313, -0.5500122308731079, -0.40307551622390747, -0.40798425674438477, -0.5498479008674622, -0.39189276099205017, -0.01994507759809494, -0.25095638632774353, -0.2574442923069, -0.7781297564506531]], "network_layers.0.bias": [-8.4928560256958, 4.47113561630249, -6.0086493492126465, 1.400070309638977, -0.5348155498504639, -0.6488043069839478, -0.9760655760765076, -0.4864144027233124, -0.19149872660636902, -0.19181416928768158, -1.0176901817321777, -0.3033776581287384, -0.29794636368751526, -0.2894652783870697, -0.04175657406449318, -0.030527770519256592, -0.31465616822242737, -4.496560096740723, -7.461732864379883, 3.824342727661133, -4.1848063468933105, -0.2913256585597992, -9.38879108428955, -1.1242295503616333, -0.5076082348823547, -9.462040901184082, -0.5073646903038025, -1.449286699295044, -0.3146041929721832, -6.602550983428955, -0.8044112324714661, -3.6773056983947754, -0.15712614357471466, -0.2814653217792511, -1.889479160308838, -0.5510501265525818, -4.7165141105651855, -2.688612937927246, -0.3410162925720215, -0.6213141679763794, -0.1026996523141861, -10.129544258117676, -0.37097418308258057, -4.068116664886475, -0.22291862964630127, -6.5041399002075195, -0.44724470376968384, -0.3057265281677246, -0.6140395998954773, -0.4080270528793335, -0.2192464917898178, -0.3587760925292969, -9.864904403686523, -0.40838053822517395, -0.1073010042309761, -0.6350998282432556, -0.44313111901283264, -0.4072340428829193, -0.959197461605072, -1.1588950157165527, -0.43576571345329285, -0.49149730801582336, -0.32797130942344666, -9.331046104431152, -7.633840560913086, -0.31198734045028687, -0.6003494262695312, -8.123971939086914, -9.147906303405762, -5.921528339385986, -8.758323669433594, -0.4646824896335602, -2.064208507537842, -1.2927753925323486, -0.33426567912101746, -6.338582992553711, -0.4902227520942688, -0.34554657340049744, -0.3900796175003052, -0.36542263627052307, -0.4492907226085663, 0.02209020033478737, -0.341661274433136, -12.461223602294922, -0.4467070996761322, -7.170336723327637, -3.506460428237915, 3.520979166030884, -0.3716444671154022, -0.8096637725830078, -0.4591793417930603, -0.4542815387248993, -0.5231748819351196, -0.5956010818481445, -0.2868715524673462, -8.146400451660156, 7.691521644592285, -0.17836108803749084, -0.26590800285339355, -7.385988712310791, -0.18718859553337097, -7.639090538024902, 5.829103469848633, -0.6524674892425537, -11.29051685333252, -0.24443086981773376, -10.108721733093262, -0.4305252134799957, -0.43669480085372925, -7.665255069732666, -4.576446533203125, -0.44248294830322266, -6.8106536865234375, -3.583340883255005, -1.1962767839431763, -0.4174947440624237, -0.3113452196121216, -0.6759615540504456, -1.607784390449524, -0.13997282087802887, -7.490673542022705, -0.4624437689781189, -0.36237218976020813, -0.2436717301607132, -1.2315455675125122, -4.220167636871338, -5.361714839935303, -0.5512540340423584], "network_layers.3.weight": [[3.6170217990875244, -2.186232089996338, 2.556802272796631, 1.6081432104110718, -0.05311471223831177, -0.042003221809864044, 0.25624844431877136, -0.042655810713768005, -0.08406658470630646, -0.026023181155323982, 0.12797698378562927, -0.12898732721805573, 0.05724635347723961, -1.854461334005464e-05, 0.04807848483324051, 0.0026452401652932167, -0.08570133149623871, -2.8464536666870117, 13.777433395385742, -1.9394500255584717, -4.681368350982666, 0.11033952236175537, 0.7131020426750183, 0.3943871855735779, 0.08388327807188034, -1.2963461875915527, -0.034415025264024734, -0.6171786785125732, 0.019192760810256004, 0.0674460157752037, -0.435381680727005, -0.9429394602775574, -0.04498111829161644, -0.07614035159349442, 0.36470410227775574, -0.006605136673897505, 1.0049306154251099, 0.7625041007995605, -0.04009045287966728, 0.652526319026947, 0.016468768939375877, 2.6787590980529785, 0.6404120922088623, 11.250468254089355, 0.0518655851483345, -3.0983409881591797, 0.08086423575878143, -0.03489909693598747, 0.01355146337300539, -0.03066178224980831, 0.27384263277053833, 0.09354810416698456, -1.0416877269744873, -0.12798619270324707, 0.0918087288737297, -0.01101234182715416, -0.03689625486731529, -0.0031806023325771093, -0.8512828946113586, -8.966263771057129, 0.03964974358677864, 0.029479384422302246, -0.06376305967569351, -7.351597785949707, -0.5168691277503967, 0.13530407845973969, 0.2134503424167633, 13.902297973632812, -3.307250738143921, 1.2887099981307983, -4.642635822296143, 0.06685884296894073, -0.15082544088363647, 0.34049469232559204, -0.1625702977180481, 2.334566354751587, 0.023561673238873482, 0.08753596991300583, -0.06611361354589462, -0.01902080327272415, 0.16847608983516693, -4.293985366821289, -0.04866616800427437, -3.9997990131378174, 0.24215580523014069, -7.5978546142578125, -10.116317749023438, -12.55300521850586, 0.26287564635276794, -0.10176265239715576, 0.09264729917049408, 0.02572607435286045, 0.2251085340976715, 0.1652250587940216, 0.10973180085420609, 1.0882320404052734, -5.085451602935791, 0.031969357281923294, 0.19381040334701538, -7.975644111633301, -0.11676345765590668, -2.624166250228882, 5.136347770690918, 0.46287569403648376, 7.432629108428955, 0.537501335144043, -5.6877007484436035, -0.04863389953970909, -0.07412251830101013, 7.940261363983154, 3.4389736652374268, 0.49145668745040894, -5.64450216293335, -3.0625576972961426, -0.5832528471946716, -0.25138595700263977, 0.02247566543519497, -0.11406227946281433, 0.38989436626434326, -0.08593640476465225, 3.225897789001465, -0.2181922048330307, 0.13270540535449982, -0.0818449854850769, -0.007762187160551548, 4.972386837005615, 5.209908962249756, -0.00541304424405098], [2.504847288131714, -0.6375066637992859, 3.396904230117798, 5.591757774353027, -0.16686569154262543, 0.07038185000419617, -0.30445486307144165, -0.24897561967372894, 0.18458761274814606, -0.3690594732761383, 2.101810932159424, -0.03236951678991318, -0.02668101154267788, 0.03557984158396721, 0.0032628895714879036, -0.15761633217334747, -0.0005973426159471273, -8.123095512390137, 12.382548332214355, -6.435473918914795, -10.405442237854004, 0.0014633384998887777, 1.510505199432373, 0.04042503982782364, 0.01658017933368683, -2.4641757011413574, 0.05354246497154236, -2.9482929706573486, -0.023709798231720924, 1.8335765600204468, 0.05495348200201988, -0.19659125804901123, -0.11368009448051453, -0.08171316981315613, -0.772595226764679, 0.1280544549226761, 4.0705461502075195, 1.9003305435180664, 0.10900537669658661, 0.4192877411842346, -0.07439889758825302, -6.370967388153076, 0.17118309438228607, 4.686215877532959, -0.0513789989054203, -2.234708786010742, 0.2216244339942932, 0.11492939293384552, -0.3906513750553131, -0.019901596009731293, 0.7309617400169373, -0.012000182643532753, -4.280932903289795, -0.0638657733798027, 0.031959012150764465, -0.12699474394321442, -0.015748878940939903, -0.24871288239955902, 1.200212001800537, -10.548501014709473, -0.010002859868109226, 0.08544424921274185, -0.4682437777519226, -5.097360610961914, 0.7911723256111145, 0.019909292459487915, -1.0354024171829224, 5.6841583251953125, -4.304981708526611, 6.001902103424072, -4.974125385284424, -0.08272063732147217, 0.08195685595273972, 0.3824147582054138, 0.2849208414554596, 1.1988826990127563, -0.023593559861183167, 0.004322140943259001, -0.0633176937699318, 0.023334823548793793, -0.026359569281339645, -10.493229866027832, -0.066742904484272, -4.748815059661865, 0.27775418758392334, -6.772847652435303, -8.077786445617676, -6.6065993309021, -0.37226033210754395, 0.31036612391471863, 0.08642170578241348, 0.10282351821660995, -0.023614292964339256, -0.2720721960067749, -0.032960452139377594, -1.6310621500015259, -3.676753044128418, -0.05206605792045593, 0.009749503806233406, -10.028543472290039, 0.07117465138435364, -3.4878268241882324, 1.283308506011963, 0.40739205479621887, 7.236556053161621, 0.657885730266571, -6.980522155761719, -0.5105929970741272, -0.07104620337486267, 5.363348960876465, -3.43038010597229, -0.4245440363883972, -8.739288330078125, -3.902616262435913, 1.1404467821121216, -0.020436353981494904, 0.0021896790713071823, 0.1235353946685791, -0.08855968713760376, -0.0056950682774186134, 1.6829649209976196, 0.10016807913780212, -0.152497336268425, -0.14622929692268372, -0.06000150367617607, 1.3648020029067993, 3.4044086933135986, 0.21457988023757935], [-4.962553977966309, -8.159061431884766, -1.398298978805542, -4.230069637298584, -0.039149511605501175, -0.04074116796255112, 0.16502012312412262, -0.2883249521255493, -0.13012321293354034, -0.035989876836538315, 0.28104332089424133, -0.16009195148944855, -0.028017524629831314, -0.08123543858528137, -0.07442215085029602, -0.04511096701025963, 0.03162548691034317, 1.617024540901184, -0.39097148180007935, -3.425206422805786, 0.832160234451294, -0.1647675633430481, 0.7073175311088562, 0.8832813501358032, -0.4943380057811737, 4.580765247344971, 0.007187032140791416, 1.113295316696167, -0.013450751081109047, -6.563350200653076, 0.10876251012086868, -1.0061254501342773, -0.16723686456680298, -0.17067375779151917, -0.6096355319023132, 0.07735566049814224, 4.05015230178833, -2.1606156826019287, 0.35039573907852173, 0.35394322872161865, -0.18648412823677063, 8.419896125793457, 0.2709961235523224, -4.329136371612549, -0.0993378609418869, -0.5461779832839966, -0.015565373934805393, -0.08769723773002625, 0.0984000638127327, -0.018659558147192, 0.5409992933273315, 0.06324341148138046, 8.08249282836914, -0.11523771286010742, -0.021002838388085365, -0.49859747290611267, -0.17961078882217407, -0.2043227106332779, 0.062323540449142456, -3.5622096061706543, -0.09192120283842087, 0.09292438626289368, 0.5138670802116394, -6.577661991119385, -5.846374034881592, -0.10338784009218216, -0.05533360689878464, -1.7043344974517822, 10.947932243347168, -6.770103454589844, 5.279371738433838, -0.09339261800050735, -1.246052622795105, 2.2470028400421143, 0.07375817000865936, 11.72773265838623, -0.154702290892601, 0.07231530547142029, -0.03720704838633537, 0.05163642019033432, 0.3101286292076111, 1.4207723140716553, 0.2057470828294754, 7.461557865142822, -0.029979202896356583, -0.39168715476989746, -0.11316851526498795, 0.9647600054740906, -0.2178051620721817, 0.5560846328735352, 0.06442920118570328, -0.11790188401937485, -0.17279325425624847, -0.1763046830892563, -0.08870016783475876, -2.3732521533966064, 0.27849477529525757, -0.04193112626671791, 0.0972803384065628, 0.07529070228338242, -0.18323761224746704, -2.993227481842041, -0.4295749366283417, 0.5894206166267395, -0.11403953284025192, 0.4510389268398285, 10.988070487976074, -0.3169064223766327, -0.1158532053232193, -2.6277830600738525, 15.825096130371094, -0.11272603273391724, 2.6591222286224365, -1.3637869358062744, -2.347538709640503, 0.02387200854718685, 0.02682355046272278, -0.3872202932834625, 0.2678399085998535, -0.17158043384552002, 5.903361797332764, -0.08437598496675491, 0.051636841148138046, 0.4331507980823517, -1.0243295431137085, -3.2797019481658936, 3.494846820831299, 0.3619392514228821], [-1.3141427040100098, -1.5253456830978394, -0.12103386968374252, -2.7647500038146973, -0.06325909495353699, 0.11352577805519104, 0.2703920602798462, -0.3596401810646057, 0.06503059715032578, 0.13515470921993256, 0.08084800839424133, -0.08143356442451477, -0.17543409764766693, 0.011843148618936539, 4.5245477053867944e-07, 0.016387853771448135, 0.0362374447286129, 0.37949463725090027, -1.8351778984069824, 0.28836363554000854, -0.7977181077003479, -0.08084441721439362, -0.5487073659896851, 0.41496512293815613, -0.024106236174702644, -0.7007074356079102, -0.011636451818048954, -0.9613644480705261, 0.1667938083410263, -0.46867045760154724, 0.6261853575706482, -2.2446606159210205, 0.01969064027070999, -0.01090013887733221, -0.4481872022151947, 0.06857118010520935, 0.19415335357189178, -1.3654998540878296, -0.024609822779893875, 0.8082959651947021, -0.1344505250453949, -0.3822082579135895, -0.08912476897239685, -3.1361896991729736, -0.4116462171077728, -1.4911125898361206, 0.012323761358857155, 0.1563584804534912, 0.40462327003479004, -0.047847505658864975, -0.44357195496559143, -0.14805108308792114, -1.776817798614502, -0.018404938280582428, 0.06532503664493561, -0.015027751214802265, -0.10298363864421844, 0.11379792541265488, 0.9366512298583984, -1.3672949075698853, 0.03298715502023697, -0.10507086664438248, -0.23040910065174103, -0.07952121645212173, -1.143731713294983, 0.016739875078201294, -0.23262138664722443, -0.5734665393829346, -0.15921373665332794, 0.02675621584057808, -0.19220124185085297, -0.0038334226701408625, 0.5996256470680237, -0.009853391908109188, -0.01241847313940525, 0.732229471206665, -0.06275065243244171, -0.05320091173052788, 0.2440907508134842, 0.17523695528507233, 0.07794351130723953, -3.104424238204956, 0.11969546228647232, -0.2026785910129547, -0.1452833116054535, -0.2000313550233841, 0.08296815305948257, -2.7497894763946533, -0.07475098967552185, -0.7530680298805237, 0.12338393926620483, -0.07616511732339859, -0.09755644202232361, 0.043434612452983856, -0.0735730230808258, -1.661635398864746, -5.000439643859863, 0.04302437976002693, 0.25040578842163086, -0.7522814273834229, -0.08322769403457642, -2.214371681213379, -6.381397724151611, 0.12154462188482285, -1.4800692796707153, -0.11265221238136292, -0.5953670144081116, 0.32272979617118835, 0.3163279891014099, 0.6259809136390686, -1.9276912212371826, -0.007101099006831646, -1.2732642889022827, -0.7702527642250061, -0.10127411782741547, -0.48730742931365967, -0.06744781881570816, -0.11230462044477463, -0.4334636330604553, -0.02289688214659691, -1.3532875776290894, 0.008565245196223259, 0.004397029522806406, -0.38704967498779297, -0.414978951215744, 0.8064287900924683, 1.7528272867202759, 0.7519674301147461], [-2.192256450653076, -4.086674690246582, -8.870973587036133, -7.7062764167785645, -0.07491366565227509, -0.02802564576268196, 0.02513759955763817, -0.11361031234264374, 0.08657286316156387, 0.04730984568595886, -0.24620309472084045, 0.06146842986345291, -0.46107354760169983, 0.04029432684183121, -0.08909469097852707, 0.12345609813928604, 0.024305639788508415, -2.3307485580444336, -8.56887149810791, -9.342241287231445, -1.6176488399505615, 0.0853252187371254, -3.003528118133545, -0.13257381319999695, 0.12166007608175278, 5.258107662200928, -0.1136009693145752, -1.7201341390609741, 0.010861286893486977, -6.386425495147705, -0.10383346676826477, 0.8720752596855164, 0.0665268525481224, -0.01207799930125475, 1.0358002185821533, 0.08347155153751373, -2.9979677200317383, -6.868791103363037, -0.004367802757769823, -0.5226289629936218, -0.11588670313358307, 3.564466953277588, -0.033381205052137375, -3.1421666145324707, -0.06396500766277313, -2.5085220336914062, -0.007790562231093645, 0.17486360669136047, 0.317782998085022, 0.049164291471242905, -0.2560091018676758, 0.005520952865481377, 3.3236896991729736, -0.02073403261601925, -0.05743914470076561, 0.3457983434200287, -0.0799643024802208, 0.08470425754785538, -0.7954790592193604, -6.191356182098389, -0.14553120732307434, 0.0388924740254879, -0.30601412057876587, -4.140435695648193, 5.831274509429932, -0.060008659958839417, -0.47919365763664246, -3.4299497604370117, 0.7830407023429871, -5.396260738372803, 1.3924423456192017, -0.0028042171616107225, -0.5749030709266663, -0.3748473823070526, 0.2248576432466507, 1.6518830060958862, -0.07577838003635406, 0.155759796500206, 0.08472322672605515, -0.041020091623067856, -0.0533309131860733, -3.8733227252960205, 0.1310875117778778, -1.6953125, 0.11109758168458939, -3.136638641357422, -5.723302841186523, -4.40236234664917, 0.5202785730361938, -0.7292420268058777, -0.013471109792590141, -0.054003238677978516, 0.04418541491031647, 0.04660920426249504, 0.007139484863728285, 1.4745876789093018, -4.037056922912598, 0.07212601602077484, 0.07018600404262543, -2.7382712364196777, -0.020667918026447296, 11.303561210632324, -3.6078686714172363, 0.07901322841644287, -8.65060043334961, 0.8325197696685791, 3.278327226638794, 0.03327282518148422, -0.018307100981473923, 1.3969746828079224, 3.5403027534484863, -0.1799289733171463, -3.380448341369629, -3.9267783164978027, 0.5966074466705322, -0.6165317893028259, 0.008353391662240028, 0.031418073922395706, 0.018835823982954025, 0.19177646934986115, -3.738701820373535, -0.32621413469314575, -0.028296077623963356, 0.07589942216873169, -0.004390402231365442, -10.863212585449219, 2.035151958465576, -0.25711631774902344], [2.935014247894287, 1.2672642469406128, 5.350584983825684, -3.9885737895965576, -0.07748240232467651, 0.132102370262146, -0.21459966897964478, 0.3490191400051117, 0.06160781905055046, -0.056136660277843475, -1.16206693649292, -0.08296778053045273, -0.08505243808031082, 0.0347508043050766, 0.04873371496796608, -0.12722526490688324, -0.11814502626657486, -0.658514142036438, 3.6820404529571533, -0.6245825886726379, -3.9878411293029785, 0.09351862221956253, -0.12560974061489105, -0.6460503935813904, -0.07958291471004486, -2.082742691040039, 0.1517726331949234, 1.513276219367981, -0.003983958158642054, 0.3857649564743042, -0.4405306875705719, -1.2583526372909546, 0.1277226209640503, 0.03315896913409233, -0.5527377724647522, 0.02350323647260666, 2.3659398555755615, 2.207359790802002, -0.011569825932383537, 0.08295456320047379, 0.04123202711343765, 0.11342153698205948, 0.01917003095149994, 6.189085006713867, -0.07711717486381531, 1.0908054113388062, -0.08551772683858871, -0.048060838133096695, -0.011127031408250332, -0.005574358161538839, -0.093998484313488, -0.08093289285898209, 1.2773710489273071, 0.06550633907318115, -0.017379825934767723, -0.46682268381118774, -0.2710154056549072, -0.14197519421577454, -0.21804381906986237, 1.2677721977233887, 0.01664826273918152, -0.012647916562855244, -0.6319785118103027, -0.6325176954269409, -0.3285868465900421, -0.0911780595779419, -0.1347329169511795, 7.029300689697266, 0.5782660841941833, 2.883648633956909, -1.1150200366973877, -0.07101668417453766, -0.3622133135795593, 0.22361432015895844, 0.04580479860305786, 1.3699709177017212, 0.09654494374990463, 0.09519551694393158, -0.020580589771270752, 0.035221658647060394, -0.023963306099176407, -0.8407565951347351, -0.028248827904462814, 0.21503867208957672, 0.30936700105667114, 2.5053813457489014, 1.9349606037139893, -4.527985095977783, -0.026657825335860252, 0.5046355128288269, -0.20515571534633636, -0.02128208987414837, -0.024904094636440277, -0.06193118914961815, -0.015448147431015968, -0.5532000064849854, -2.159363031387329, -0.027617838233709335, 0.02456718683242798, -0.9703251123428345, -0.06693804264068604, -0.6685571074485779, -2.1782009601593018, -0.1422286331653595, 1.8302959203720093, -0.17873580753803253, -1.209990382194519, 0.03801785781979561, 0.044187016785144806, 5.059207916259766, -0.25291773676872253, 0.2492089867591858, 0.9477885365486145, 0.7243819832801819, 1.5728281736373901, 0.14896151423454285, -0.020461982116103172, 0.05209662392735481, -0.10972113162279129, 0.10247303545475006, 2.1512255668640137, 0.07004745304584503, 0.05511254072189331, -0.30030491948127747, -0.6586726307868958, 0.4981335997581482, -0.5830520391464233, -0.02936847135424614], [-0.24789556860923767, -0.0727543979883194, -0.3239905834197998, -0.25879472494125366, -0.131426602602005, -0.09399569034576416, -0.1982126384973526, -0.12925903499126434, -0.04972713813185692, 0.037762079387903214, -0.03793114051222801, -0.13761453330516815, 0.03546566516160965, 0.019939210265874863, -0.00801263190805912, -0.02538457326591015, 0.10770000517368317, -0.1835557222366333, -0.03903021663427353, 0.27841001749038696, -0.15756088495254517, -0.08737973868846893, -0.10081981867551804, -0.013231098651885986, -0.12593498826026917, 0.018198860809206963, -0.06255354732275009, 0.023466546088457108, -0.013188608922064304, -0.2924484312534332, 0.034261588007211685, -0.24569204449653625, 0.031201129779219627, -0.24722295999526978, 0.010504072532057762, -0.042603749781847, -0.4513467252254486, -0.28311342000961304, 0.1601792275905609, -0.00498117133975029, 0.06684483587741852, -0.0411987379193306, -0.033826250582933426, -0.47160452604293823, -0.03303252533078194, -0.16184647381305695, 0.02885318174958229, -0.08446712046861649, -0.005002567544579506, -0.04181264713406563, -0.06784642487764359, 0.04042300581932068, -0.14756271243095398, -0.06049352511763573, -0.0991477519273758, -0.24278384447097778, 0.02919452078640461, -0.2594091594219208, -0.5152875185012817, -0.27237603068351746, -0.13665658235549927, -0.08575466275215149, 0.32866060733795166, -0.07216465473175049, -0.30566421151161194, -0.07467516511678696, -0.009172691963613033, -0.10585831850767136, -0.12175825238227844, -0.5193370580673218, -0.14425532519817352, -0.19087138772010803, -0.2350977510213852, -0.00605886010453105, -0.0736885815858841, 0.1371391862630844, -0.10657599568367004, -0.10751765221357346, 0.03162091597914696, 0.06229722499847412, -0.12682580947875977, -0.18009108304977417, 0.1535143256187439, -0.13053005933761597, 0.11201386898756027, -0.055576492100954056, -0.14132064580917358, -0.31822916865348816, -0.02769114449620247, -0.029080895707011223, -0.131426602602005, 0.007047466468065977, -0.06371264159679413, -0.01608423888683319, 0.15545561909675598, -0.14324703812599182, -0.09807385504245758, 0.0104710403829813, 0.11377383768558502, -0.16813495755195618, -0.16589710116386414, -0.3361530303955078, -0.5173713564872742, -0.004397392272949219, -0.03528113663196564, -0.019306259229779243, -0.398727148771286, -0.003135277424007654, -0.17190177738666534, -0.12361707538366318, -0.32327550649642944, -0.07062514126300812, -0.019721901044249535, 0.050540048629045486, 0.05243469402194023, -0.29010525345802307, -0.10484768450260162, -0.06023025885224342, -0.19692443311214447, -0.13104207813739777, -0.25771188735961914, -0.15575703978538513, 0.159768208861351, -0.10128553211688995, -0.3072468042373657, 0.06808389723300934, -0.13127924501895905, -0.08556833118200302], [-1.236756682395935, -3.7817025184631348, 4.357582092285156, -1.1200859546661377, -0.0525650680065155, -0.002591446740552783, 0.07830451428890228, -0.0488864965736866, -0.06237013638019562, 0.0883815810084343, -0.6848961114883423, -0.06963196396827698, -0.042518917471170425, -0.08359819650650024, -0.04499807581305504, -0.16525930166244507, -0.007724821101874113, 5.5307722091674805, 0.8744359612464905, 5.675003528594971, 1.0260354280471802, -0.0008445807034149766, 4.243112087249756, -0.2737937271595001, -0.044458337128162384, 4.391650676727295, 0.07320983707904816, -0.4425704777240753, 0.008444426581263542, 5.28312873840332, -0.3047822415828705, 5.0170698165893555, 0.027594363316893578, -0.007265507709234953, 1.0723928213119507, -0.03800041973590851, 0.07254037261009216, 0.42308831214904785, -0.01866505853831768, 0.06494434922933578, -0.053849928081035614, -0.21768200397491455, 0.5413297414779663, 1.4312126636505127, -0.13723590970039368, 4.677107334136963, -0.005501177627593279, 0.005463539157062769, -0.059429772198200226, -0.11795634776353836, -0.11749562621116638, 0.009004578925669193, 7.021587371826172, -0.10043259710073471, 0.004797997884452343, 0.03520418703556061, -0.07562863081693649, -0.19981567561626434, -0.3670092225074768, 7.082802772521973, -0.06700685620307922, -0.16546395421028137, -0.4571831226348877, 5.293126583099365, -0.12958797812461853, -0.13769745826721191, -0.7425185441970825, -1.811109185218811, 10.978973388671875, 0.5445867776870728, 2.4883224964141846, -0.03796081990003586, -0.41459983587265015, 1.8187737464904785, 0.1914653331041336, 8.906394004821777, -0.06810871511697769, -0.004186056554317474, 0.014281827956438065, 0.08355433493852615, 0.06800494343042374, 0.1467217355966568, -0.0016273213550448418, -0.7136949896812439, -0.1138441413640976, 8.101401329040527, 7.929840564727783, -1.4184881448745728, 0.014920905232429504, -0.08703509718179703, -0.11660262197256088, 0.012538935989141464, -0.029882725328207016, -0.024689791724085808, -0.0937974750995636, 3.556858539581299, -2.0396530628204346, -0.021314198151230812, -0.15942394733428955, 4.622354507446289, -0.05639272555708885, 10.11642837524414, -3.9946067333221436, 0.03594054654240608, 0.7985358238220215, 0.08114868402481079, 8.139178276062012, -0.04193291440606117, 0.06541784107685089, 0.05410661920905113, 17.828466415405273, -0.14074380695819855, -0.9103912115097046, 3.9135966300964355, 2.990772247314453, -0.1460227370262146, -0.0497073233127594, -0.09188998490571976, -0.059718575328588486, -0.059948790818452835, 0.5194486975669861, 0.043515682220458984, -0.04393269121646881, -0.09106958657503128, -0.059166692197322845, 0.7193959951400757, 6.228776454925537, 0.019448990002274513], [6.571921348571777, 1.7058767080307007, 6.146340370178223, 0.9187930822372437, -0.0886165052652359, 0.1616101711988449, -0.05676651746034622, 0.1204732209444046, 0.08782398700714111, -0.025022141635417938, 2.455481767654419, 0.0044028423726558685, -0.061421576887369156, -0.034561436623334885, -0.04155440255999565, -0.018527759239077568, 0.05771962180733681, -0.9139849543571472, 12.072416305541992, 6.240414619445801, -0.2777208387851715, -0.07365719228982925, 2.1636271476745605, 0.5566234588623047, 0.38016003370285034, 4.830240249633789, -0.01859348453581333, -0.5650314092636108, 0.036139827221632004, 3.9725725650787354, -0.02067369408905506, 0.7851791977882385, -0.0344899445772171, 0.011245074681937695, 0.23181340098381042, -0.06740052998065948, 0.7064811587333679, 6.175673484802246, -0.2830825746059418, -0.05622965097427368, -0.12745359539985657, 1.0085570812225342, -0.3064267337322235, 10.67394733428955, -0.18091019988059998, -2.262115478515625, -0.05704165995121002, 0.0011943180579692125, 0.08198011666536331, -0.11214127391576767, 0.14397192001342773, -0.10005030781030655, 0.30785199999809265, -0.0779368206858635, 0.049262549728155136, -0.06824490427970886, -0.08285704255104065, 0.25509005784988403, 0.9148067831993103, -2.3209667205810547, -0.09327809512615204, -0.0704990029335022, 0.9630413055419922, -0.6436874270439148, -0.17465949058532715, -0.08191946148872375, 1.0699760913848877, 13.481535911560059, 0.8913249969482422, 5.289740085601807, -1.3584736585617065, 0.04862707853317261, -1.762494444847107, -0.8039715886116028, 0.2105175405740738, 4.22098445892334, -0.02393810637295246, 0.00724873086437583, 0.06959237158298492, 0.01361472811549902, -0.13012146949768066, -5.0810933113098145, 0.03845776617527008, -0.19852066040039062, -0.0400584377348423, 1.3848267793655396, -5.630001544952393, -9.823328018188477, 0.019539499655365944, 0.47220489382743835, -0.09979309141635895, 0.09416208416223526, -0.11814483255147934, 0.05943518877029419, -0.11724618822336197, 1.9511644840240479, -5.923315048217773, -0.06124353036284447, -0.01125701516866684, -5.194312572479248, 0.08498071879148483, -0.4331393241882324, -2.0612590312957764, -0.36821797490119934, 7.749241352081299, -0.20241740345954895, -1.9914518594741821, -0.035082221031188965, -0.07433789223432541, 6.103121280670166, 5.363053798675537, -0.005470088683068752, -2.234900951385498, 0.7473297119140625, 1.5523399114608765, 0.21114908158779144, 0.007218196522444487, -0.02135462313890457, -0.4987557828426361, -0.08511769771575928, 5.934169292449951, 0.014689245261251926, -0.10272303968667984, -0.056970786303281784, -0.2705115079879761, 5.617972373962402, -0.7756584882736206, -0.4166520833969116], [-4.579020023345947, -7.3077473640441895, -6.887588977813721, -6.404869556427002, 0.02327672764658928, 0.26548558473587036, -0.5218992233276367, -0.1567157357931137, -0.024407418444752693, 0.24478180706501007, 0.6689549088478088, -0.3027541935443878, 0.028788715600967407, 0.06451676040887833, -0.049754802137613297, 0.22687764465808868, 0.07274168729782104, -3.219644546508789, -10.622803688049316, -6.721631050109863, -3.819725751876831, -0.026263387873768806, -3.379756212234497, 0.3838737905025482, 0.3230859041213989, 6.358500003814697, -0.27257493138313293, 0.3260214030742645, 0.11338550597429276, -7.903028964996338, -0.7212252616882324, 3.5803823471069336, -0.04285787045955658, -0.3017032742500305, 2.548227548599243, 0.08714676648378372, -1.9352457523345947, -1.5796176195144653, 0.2553076148033142, 0.5218860507011414, 0.02415027655661106, 4.622848987579346, 0.6979876756668091, -1.9059810638427734, -0.1946142464876175, -1.3142935037612915, -0.2803959250450134, 0.09969613701105118, 0.21242718398571014, -0.11101191490888596, 0.21331927180290222, 0.2589294910430908, 9.093777656555176, -0.015732016414403915, -0.17623624205589294, -0.06831274926662445, -0.2865094244480133, -0.19068054854869843, 1.6157829761505127, -4.155278205871582, 0.0945281982421875, -0.06959843635559082, 1.0776876211166382, -7.460067272186279, 3.7257895469665527, -0.01285887323319912, 0.4502383768558502, -0.2733103334903717, 4.226251125335693, -7.855789661407471, 0.7192357778549194, -0.022365421056747437, -1.0506997108459473, 0.9199182391166687, 0.0464828684926033, 2.8956010341644287, -0.31568434834480286, -0.07128696888685226, 0.23598918318748474, 0.21231023967266083, -0.011748136952519417, -4.685530662536621, 0.14179860055446625, 6.343392372131348, -0.028209920972585678, -4.469611644744873, 0.2931622862815857, -3.298896551132202, 0.2632027864456177, -0.06394051015377045, -0.09107533097267151, -0.13261587917804718, 0.20739047229290009, -0.022397298365831375, -0.18921692669391632, 2.9180386066436768, -4.23902702331543, -0.007429801393300295, 0.031238777562975883, -5.0043721199035645, -0.10814966261386871, 9.14106559753418, -3.323108196258545, 0.8582960367202759, -6.1555938720703125, -0.08463767170906067, 6.040847301483154, 0.37199676036834717, 0.3771512806415558, 1.5297229290008545, 8.720595359802246, 0.316555917263031, -0.39964479207992554, -5.31144380569458, 0.28515270352363586, -0.023900486528873444, 0.08068098872900009, -0.2720261514186859, -0.7126911878585815, 0.12524089217185974, -3.926534652709961, -0.04056312143802643, 0.0015639703487977386, -0.9310795664787292, -0.7548586130142212, -6.816612720489502, 4.375640392303467, 0.3715943992137909], [-0.8106724619865417, 1.2341229915618896, 1.3381407260894775, 0.1512276828289032, 0.12682770192623138, 0.056243740022182465, -0.24819986522197723, 0.08263314515352249, 0.028275761753320694, -0.0823235735297203, -0.8288043737411499, -0.09363368153572083, 0.05508553609251976, 0.011703821830451488, -0.1149144321680069, -0.36444351077079773, 0.00516487006098032, 3.639023780822754, -1.1662801504135132, -0.8114667534828186, 3.143165349960327, 0.06796719878911972, 1.4950519800186157, -0.34296122193336487, -0.17547720670700073, 0.3159840404987335, -0.07630430161952972, -0.6431939005851746, -0.02980293147265911, 2.874192476272583, -0.1716344952583313, -1.4754079580307007, -0.004185558296740055, -0.12153845280408859, -0.08721532672643661, -0.07772309333086014, -0.33825406432151794, -2.115746259689331, 0.08568556606769562, 0.7417363524436951, 0.044385023415088654, 7.000722885131836, -0.12573832273483276, -2.525428295135498, -0.16949006915092468, -0.31663745641708374, -0.09485731273889542, -0.007943589240312576, -0.021307632327079773, 0.2798967957496643, -0.6416433453559875, 0.16888050734996796, -0.08081832528114319, -0.054962992668151855, 0.15234172344207764, -0.0907551720738411, -0.083758145570755, -0.2735213339328766, -0.40705588459968567, -0.07882291078567505, -0.11918135732412338, -0.07478729635477066, 0.06260952353477478, 2.397918462753296, -1.373569369316101, 0.026671847328543663, -0.6487815380096436, 0.5892389416694641, 1.3676594495773315, -0.9252510666847229, 4.17820930480957, -0.050700072199106216, -0.4893980920314789, -0.061733171343803406, 0.36971449851989746, 0.4492742419242859, 0.004889837000519037, -0.0702381357550621, -0.01583445444703102, 0.07864481955766678, 0.016540734097361565, 1.0702530145645142, 0.2044515162706375, 3.1803879737854004, -0.02837313339114189, -0.42444273829460144, 2.297985315322876, 0.33645910024642944, -0.49717143177986145, -0.751348078250885, -0.035106781870126724, -0.03192933648824692, 0.11686103045940399, -0.009837516583502293, -0.07603289186954498, -0.3027358055114746, -1.7208142280578613, 0.04252360761165619, -0.08744188398122787, 4.666565895080566, -0.012797374278306961, -0.840083122253418, -1.6188740730285645, -0.03503585606813431, 0.24731087684631348, 0.3135570287704468, -1.720714807510376, -0.33668404817581177, 0.06868308037519455, -0.4713996648788452, -1.5860520601272583, 0.037623386830091476, 0.13162662088871002, 0.09831928461790085, -0.20422671735286713, -0.4360344409942627, -0.018682820722460747, -0.1445866972208023, -0.007080255541950464, -0.134649395942688, 0.38171905279159546, 0.04741910099983215, -0.09473728388547897, 0.009891621768474579, -0.5631763935089111, 0.7153536677360535, 0.8607380390167236, 0.4608188569545746], [-0.9640161991119385, -3.3900139331817627, -0.541291356086731, -1.8106420040130615, -0.1720188707113266, 0.3156413435935974, -0.0562618114054203, -0.18251000344753265, -0.1081111803650856, -0.15043675899505615, -0.9732606410980225, -0.1958976686000824, 0.1762494295835495, -0.0004786195931956172, 0.028864633291959763, 0.03150274232029915, 0.09625653177499771, 1.2784974575042725, -1.425065517425537, -0.6464722752571106, 0.20053067803382874, -0.15095162391662598, -0.7998595833778381, 0.5613014698028564, -0.7801603674888611, 0.8939259648323059, 0.0488421693444252, -1.106977105140686, -0.10139920562505722, -3.241819143295288, -0.7692208886146545, -0.054014015942811966, -0.07403622567653656, -0.19121146202087402, 0.6463273167610168, -0.0256222914904356, -1.8673549890518188, -1.609849214553833, 0.031117627397179604, 0.5422382950782776, 0.11019866913557053, -0.5065581798553467, 0.5294303894042969, -3.3468399047851562, -0.2067437320947647, -0.9461712837219238, 0.3558898866176605, 0.08257316797971725, 0.39595890045166016, -0.12777268886566162, 0.09022398293018341, -0.4874875247478485, -0.1663949191570282, -0.010385891422629356, 0.06239321455359459, -0.031238095834851265, 0.003923362586647272, -0.7157167792320251, 0.4554954171180725, -1.9502959251403809, 0.17171445488929749, -0.08462248742580414, 0.5755326151847839, -1.1741933822631836, -1.2942489385604858, -0.15397822856903076, 0.17100897431373596, -0.06938233226537704, 0.030250050127506256, 0.19741934537887573, -0.7709320783615112, 0.027723528444767, -0.39428606629371643, 0.5197621583938599, -0.0996435210108757, 1.833308219909668, -0.12437573075294495, 0.054411955177783966, 0.1465197652578354, 0.30560654401779175, 0.04857204109430313, -1.4617253541946411, 0.08714986592531204, -0.3871256411075592, 0.036996059119701385, -0.03980487212538719, 0.4785996377468109, -1.4155330657958984, -0.004795916844159365, -0.15981736779212952, -0.06308446824550629, 0.03774052485823631, -0.18467020988464355, -0.0273651834577322, -0.09668873250484467, 0.4515484571456909, -2.708782911300659, 0.01772570237517357, 0.05285319313406944, -1.5318394899368286, -0.08872450143098831, -0.3862389624118805, -2.8903353214263916, 0.026188109070062637, -1.4363850355148315, -0.04966812953352928, -0.03178256377577782, -0.30583077669143677, 0.5200143456459045, -0.6206405162811279, 0.8663764595985413, 0.21268363296985626, -1.6014844179153442, -1.8991931676864624, -1.9862513542175293, -0.26934054493904114, 0.22424215078353882, -0.10759943723678589, -0.3510356545448303, 0.15137217938899994, -0.1881686896085739, -0.29438671469688416, 0.025570444762706757, -0.2938826382160187, -0.6902223825454712, -1.3581252098083496, -0.3473091721534729, -0.02647280879318714], [0.04590252414345741, -0.015739871188998222, 0.017239684239029884, -0.06928250938653946, -0.008668651804327965, -0.019550196826457977, 0.013143705204129219, 0.067027248442173, -0.08500329405069351, -0.03101435862481594, -0.02682633139193058, -0.013197405263781548, -0.1435454934835434, -0.037358228117227554, 0.02778192050755024, -0.07152917981147766, -0.0031284149736166, -0.044362202286720276, -0.00913621112704277, -0.07717761397361755, -0.11713328212499619, 0.08768878132104874, 0.002486664103344083, 0.06975650042295456, -0.15912224352359772, -0.007357100956141949, -0.015382317826151848, -0.09804364293813705, -0.0710151195526123, -0.04254347085952759, -0.06685328483581543, -0.3257581293582916, -0.08429475873708725, -0.0930710881948471, -0.11785329133272171, -0.08182790130376816, -0.02969917468726635, -0.12042351812124252, -0.04290974885225296, -0.08015882968902588, -0.13591425120830536, -0.04010475054383278, -0.027627022936940193, -0.08659586310386658, -0.15568490326404572, -0.1374242603778839, -0.10358356684446335, -0.0020513180643320084, -0.05752737075090408, -0.08102089166641235, -0.03106573037803173, -0.07564153522253036, -0.09812117367982864, -0.09682387113571167, 0.013819914311170578, -0.018235497176647186, -0.11178009957075119, -0.0505136214196682, 0.05930139496922493, -0.10115005075931549, -0.07097640633583069, -0.055423762649297714, -0.01812131144106388, 0.028311263769865036, -0.3940022885799408, -0.0856868103146553, -0.04285997897386551, -0.040234796702861786, -0.003496506018564105, -0.048653244972229004, -0.2750251889228821, -0.05974091216921806, -0.02489711344242096, -0.09079917520284653, -0.07796768099069595, -0.018652277067303658, -0.07725465297698975, 0.04023725911974907, -0.012470641173422337, -0.00012795782822649926, 0.07596391439437866, -0.21819065511226654, -0.06547233462333679, 0.037648335099220276, 0.05481820926070213, -0.010235130786895752, -0.06193952262401581, -0.261898934841156, -0.1185658872127533, -0.03512158244848251, -0.12311174720525742, -0.023406952619552612, -0.0018226159736514091, -0.03742517903447151, -0.03798532485961914, -0.07566811144351959, -0.1295633614063263, -0.0276267658919096, -0.024891119450330734, -0.0318492166697979, -0.019756503403186798, 0.01761847920715809, -0.15542100369930267, -0.037834908813238144, -0.034490179270505905, -0.03569001704454422, 0.008952980861067772, -0.03558977320790291, 0.011772836558520794, -0.059385765343904495, -0.05375545844435692, -0.07117228209972382, -0.0020039209630340338, -0.2983524203300476, -0.037123288959264755, 0.008602508343756199, -0.022338883951306343, -0.011292456649243832, -0.14638358354568481, 0.0426839254796505, -0.057351045310497284, 0.039038192480802536, -0.05360408499836922, -0.08476681262254715, -0.07353672385215759, -0.040679726749658585, -0.07680588960647583, 0.0037005774211138487], [3.5580434799194336, 2.0754668712615967, 2.569326400756836, -3.306652545928955, -0.15535113215446472, -0.22987158596515656, 0.3563535213470459, -0.481376051902771, -0.17400482296943665, 0.00766094820573926, 1.7192178964614868, -0.2535647749900818, 0.2771822214126587, -0.0645369365811348, 0.01816198043525219, -0.19356505572795868, 0.08788555860519409, -4.274460315704346, 7.150104522705078, -1.345694899559021, -2.6738760471343994, 0.16396449506282806, -2.313512086868286, -0.08663926273584366, -0.08737637102603912, -0.6907086968421936, 0.25427937507629395, 1.1368640661239624, 0.019536636769771576, 4.408915996551514, 0.9225072860717773, -0.08849070221185684, -0.06360354274511337, -0.08730392158031464, -0.43431636691093445, -0.14620532095432281, -0.8931300640106201, 3.0912868976593018, -0.1532599925994873, -0.3015132546424866, 0.02849583700299263, -1.7850911617279053, -0.23723988234996796, -1.3927345275878906, -0.2581118643283844, -6.029294967651367, -0.07737578451633453, 0.11975140869617462, -0.002598037011921406, 0.0576469823718071, 0.46518877148628235, 0.031150177121162415, -1.6216522455215454, 0.0038734201807528734, 0.04471767693758011, 0.11325746774673462, -0.02507157437503338, 0.23731814324855804, -0.6646904945373535, -1.3775521516799927, 0.1295470893383026, 0.10803873836994171, -0.3206440210342407, -4.515089511871338, -2.3160574436187744, 0.14428873360157013, -0.638404905796051, 3.6127870082855225, -2.1604983806610107, 3.9195306301116943, -5.086722373962402, -0.03379816934466362, -0.0645034983754158, 0.017638977617025375, -0.13722598552703857, -1.5479650497436523, -0.0642288476228714, -0.05873249098658562, 0.05783066898584366, -0.17928625643253326, -0.5449153184890747, -9.34244441986084, -0.0005245964857749641, -0.2110435962677002, 0.23252655565738678, -1.7517826557159424, -3.1945903301239014, -5.830233097076416, -0.27772700786590576, 0.12290047109127045, -0.035656459629535675, 0.015290539711713791, 0.13706959784030914, 0.12620367109775543, -0.0896947979927063, -1.151343584060669, -7.507071495056152, 0.05113779753446579, 0.015028538182377815, -3.967778444290161, -0.16649280488491058, -2.0260820388793945, -5.713906764984131, 0.6610307693481445, 0.0949794203042984, -0.21238282322883606, 0.5558649301528931, 0.31374460458755493, -0.2999500036239624, 1.97069251537323, -2.3581297397613525, -0.31778135895729065, -4.759993076324463, 1.2240267992019653, 3.0426950454711914, -0.03769701346755028, -0.06766100972890854, -0.23455646634101868, 0.001058651483617723, 0.22657597064971924, 1.4572068452835083, -0.22241553664207458, -0.1553886979818344, 0.05010204017162323, 0.10063247382640839, 0.23524051904678345, -4.748480796813965, -0.0699266642332077], [4.083593845367432, 0.3981040418148041, 0.9604482054710388, 0.17141735553741455, -0.02136468142271042, -0.12350806593894958, -0.06097397953271866, 0.05445338785648346, 0.08092404901981354, -0.04366682097315788, 1.2362838983535767, -0.15882527828216553, -0.11614017933607101, -0.040768034756183624, -0.14154696464538574, 0.0956052616238594, 0.053515803068876266, -2.9395902156829834, 16.851499557495117, -1.5431336164474487, -2.7285799980163574, -0.06765630841255188, 1.3349580764770508, -0.5706443190574646, -0.09362414479255676, 1.415847897529602, 0.0027747638523578644, 0.7875155806541443, -0.022749047726392746, 0.7686447501182556, -0.04239979386329651, -0.2996572256088257, 0.07930084317922592, 0.00021152636327315122, 0.16565485298633575, -0.05752307176589966, 0.8717657923698425, 2.0894508361816406, 0.014933839440345764, 0.4638642370700836, -0.051286276429891586, 0.8372178673744202, 0.33482176065444946, 10.970494270324707, -0.021445583552122116, -1.2306196689605713, 0.07321008294820786, 0.02418147213757038, -0.020976770669221878, 0.04360765963792801, 0.059384189546108246, 0.13075421750545502, 1.0489732027053833, -0.09056272357702255, 0.10628289729356766, -0.14980916678905487, 0.009081467986106873, -0.10550985485315323, 0.4062812030315399, -7.772491931915283, 0.02536686509847641, -0.008014149032533169, 0.4004758894443512, -4.183048725128174, -1.8312588930130005, -0.01661544106900692, 1.0366684198379517, 4.5607781410217285, -5.072710990905762, 1.6998077630996704, -4.535019397735596, -0.03138461336493492, -0.2311948537826538, -0.8283835053443909, 0.031369853764772415, -0.7406362891197205, -0.020559852942824364, 0.138024240732193, 0.0007250522030517459, 0.0951015055179596, 0.06165028363466263, -1.3119863271713257, 0.11753995716571808, -4.624314308166504, 0.019823556765913963, -3.282740592956543, -9.645590782165527, -12.998785018920898, -0.13483592867851257, -0.22068649530410767, -0.15122191607952118, -0.14732736349105835, -0.07868903875350952, 0.07570797204971313, -0.09334173053503036, 0.18123818933963776, -2.648099422454834, -0.058038920164108276, 0.07821603864431381, -8.374165534973145, -0.05095071345567703, -1.1756945848464966, -1.803551197052002, 0.8294182419776917, 7.225279331207275, -0.056165680289268494, 0.6404260993003845, -0.11729903519153595, -0.0568513423204422, 9.464354515075684, 5.113734245300293, -0.027902716770768166, -2.5138449668884277, 3.015892744064331, 1.2037891149520874, -0.35995081067085266, -0.06925927847623825, -0.13804307579994202, 0.2271946221590042, 0.07876213639974594, 4.468166828155518, 0.013779922388494015, -0.14967025816440582, -0.13304223120212555, -0.21426433324813843, 2.74038028717041, 6.155023574829102, 0.04193772003054619], [-1.7936887741088867, -0.5722590684890747, -1.7125412225723267, -1.0422817468643188, -0.034662920981645584, 0.08897066116333008, 0.4761008620262146, 0.03473230078816414, -0.02116178534924984, 0.07937540113925934, 2.728604555130005, -0.06941447407007217, -0.02674758806824684, -0.08818026632070541, -0.03767846152186394, 0.019465217366814613, -0.009619803167879581, 1.748565673828125, -0.36243605613708496, 4.418776988983154, 5.550439357757568, 0.014053824357688427, 0.12895093858242035, -0.4700026512145996, -0.08456164598464966, 4.027569770812988, -0.04831445589661598, -0.8503714799880981, -0.0011570679489523172, -1.5804237127304077, 0.08732213079929352, 3.264441967010498, 0.02128702402114868, -0.07722196727991104, 0.058880165219306946, 0.04177934676408768, 3.0481374263763428, -2.158931016921997, -0.39606109261512756, 0.01896711438894272, -0.09948033839464188, 3.981461524963379, 1.1471655368804932, 0.3473324179649353, 0.08028899878263474, 0.3734373450279236, -0.05352073162794113, -0.12391902506351471, -0.34272927045822144, -0.0572272390127182, 0.13689623773097992, -0.025247374549508095, 5.676783561706543, -0.1469062715768814, -0.03010178543627262, -0.010509854182600975, -0.28335511684417725, 0.0026028549764305353, -0.7840176820755005, -2.7070837020874023, -0.25440946221351624, -0.05635962262749672, -0.7419782280921936, -0.816029965877533, 1.206577181816101, -0.0539846234023571, -0.2561855614185333, 3.2095603942871094, 6.113207817077637, 2.8730294704437256, 7.213412284851074, -0.1138516217470169, -0.5323924422264099, 0.47615426778793335, 0.05567173287272453, 2.34725022315979, -0.07775234431028366, -0.07628753036260605, -0.06844859570264816, -0.013775286264717579, 0.00750948628410697, 1.2692539691925049, -0.07758598029613495, 3.6300852298736572, -0.12107133120298386, 2.3823180198669434, 4.7006144523620605, -0.1350424438714981, 0.1262781023979187, -0.358862966299057, -0.05796618387103081, -0.008605580776929855, -0.15064387023448944, 0.08183524012565613, -0.12301573902368546, 0.8398221731185913, -1.0164185762405396, -0.057685066014528275, -0.10594062507152557, 0.8274040222167969, -0.004764480050653219, 1.6501764059066772, -3.954704761505127, -0.7153236269950867, 0.9040917754173279, -0.8219244480133057, 10.441533088684082, 0.20714370906352997, 0.018982771784067154, 0.034536782652139664, 14.498680114746094, -0.38798150420188904, 2.6109402179718018, -0.5203827023506165, -0.3550492525100708, -0.36210188269615173, -0.013439888134598732, -0.018077516928315163, -0.5601171851158142, 0.07272510230541229, -0.338778555393219, -0.03672032430768013, -0.0874311551451683, -0.005831307731568813, -0.20811675488948822, -2.231797218322754, 5.0328192710876465, -0.10410518944263458], [-2.038614511489868, -0.006738411262631416, 0.008785735815763474, -1.1036823987960815, 0.10810836404561996, -0.3504994213581085, -0.069811150431633, -0.000902809202671051, 0.015881763771176338, 0.23776526749134064, -1.282434344291687, -0.16380466520786285, -0.029429666697978973, 0.04516766965389252, 0.11859090626239777, -0.12239450216293335, -0.021648108959197998, 5.106052875518799, -2.2200276851654053, 7.245312213897705, 2.3727636337280273, -0.04057172313332558, 4.922486782073975, 0.5631556510925293, -0.24387173354625702, 9.333457946777344, 0.0020764144137501717, -0.8532212972640991, -0.04889439791440964, 4.500527381896973, -0.29071393609046936, 5.617431640625, 0.10949837416410446, -0.007548587396740913, 3.0834200382232666, -0.16427840292453766, -0.11548642069101334, -2.710275650024414, 0.15002238750457764, 0.6911357641220093, 0.23522472381591797, 8.039860725402832, 2.3794713020324707, 3.5259933471679688, -0.07921359688043594, 1.7275484800338745, -0.16336192190647125, 0.031772203743457794, -0.07984746247529984, -0.004761903081089258, -0.30926889181137085, -0.03252486512064934, 8.747031211853027, 0.024537207558751106, 0.06826242804527283, -0.13861322402954102, -0.03077201545238495, -0.180264413356781, 0.2961242198944092, 2.1640448570251465, -0.009707209654152393, 0.03933138772845268, -0.1344011425971985, -3.393078327178955, 2.9249234199523926, -0.037742987275123596, 0.06952051818370819, -0.5557507276535034, 12.276531219482422, -5.196854114532471, 9.249688148498535, 0.08511751145124435, -1.134798288345337, -0.08966747671365738, 0.046434156596660614, 7.071817398071289, 0.20908872783184052, -0.021319963037967682, -0.067162424325943, -0.10303172469139099, -0.3733598291873932, 3.844148874282837, 0.0005301017663441598, 8.976466178894043, 0.09990862011909485, 6.802260398864746, 5.505328178405762, -0.5099217891693115, -0.2907990515232086, -0.5082422494888306, 0.044693347066640854, 0.031231898814439774, -0.02550431899726391, 0.30308401584625244, 0.017527157440781593, 2.297016143798828, -1.602257490158081, 0.01062550488859415, 0.027080334722995758, 5.31760835647583, -0.05069471150636673, 11.776408195495605, -0.888228178024292, -0.47104090452194214, -2.429288625717163, -0.030998602509498596, 11.50336742401123, 0.1491554230451584, -0.14414986968040466, 5.863379955291748, 20.937700271606445, 0.019617825746536255, 2.4282822608947754, -1.4250500202178955, 1.5246978998184204, -0.09498528391122818, -0.014119300991296768, -0.03375428169965744, -0.256605863571167, -0.047646861523389816, 1.8204206228256226, 0.19561809301376343, 0.06480792909860611, 0.4460495412349701, -0.4014146625995636, -2.79358172416687, 11.288818359375, 0.3653102219104767], [-0.07456670701503754, -0.06823305040597916, -0.09659316390752792, -0.38269343972206116, -0.03530587628483772, -0.1015806496143341, -0.06270197033882141, 0.023868581280112267, 0.08431808650493622, 0.048933710902929306, -0.12618538737297058, 0.008238648064434528, -0.06431110948324203, 0.04102799668908119, -0.08579027652740479, 0.00012213087757118046, -0.06276518851518631, -0.04501637443900108, -0.03986697271466255, 0.061918292194604874, 0.04953266680240631, 0.0388636514544487, 0.010135073214769363, -0.07534220814704895, -0.008103575557470322, -0.07278083264827728, 0.04147223010659218, -0.08299755305051804, 0.03938240557909012, -0.06142747774720192, -0.031037351116538048, -0.3730272650718689, -0.06942491978406906, -0.07996013760566711, -0.103480264544487, 0.0635790154337883, 0.06716126203536987, -0.19762685894966125, -0.11487731337547302, -0.08346614241600037, -0.06931003928184509, -0.1462128907442093, 0.018441075459122658, 0.04552339389920235, -0.1390744000673294, -0.0472114272415638, 0.02090648002922535, 0.10728059709072113, 0.0037711523473262787, -0.011801697313785553, -0.014798163436353207, -0.07526838034391403, -0.04245929792523384, -0.006196094211190939, 0.028230974450707436, -0.13889017701148987, -0.0018685938557609916, -0.0967494547367096, -0.132320374250412, -0.08151175081729889, 0.07612748444080353, -0.07819243520498276, -0.061878785490989685, -0.022096820175647736, 0.018799370154738426, -0.07860895991325378, -0.39779311418533325, 0.013173950836062431, -0.11005544662475586, -0.3860107958316803, -0.09660425037145615, -0.07848331332206726, -0.19598066806793213, -0.19411665201187134, 0.03464275598526001, -0.1385142058134079, 0.04032427817583084, 0.033666882663965225, 0.020644336938858032, 0.03931481018662453, 0.023429885506629944, -0.6451191902160645, 0.021529529243707657, 0.08601445704698563, -0.01815701276063919, 0.057599883526563644, -0.0324939601123333, -0.4610500633716583, -0.04424258694052696, -0.016678648069500923, -0.1304970532655716, -0.11670396476984024, -0.023242712020874023, -0.0045122625306248665, -0.032003648579120636, -0.3931495249271393, -0.49214470386505127, 0.06861772388219833, -0.09097974747419357, 0.06546442210674286, -0.017018591985106468, -0.44329336285591125, -0.16748279333114624, 0.06609164923429489, 0.03488679602742195, -0.16307410597801208, -0.2991240620613098, -0.05363909900188446, -0.10118238627910614, -0.14981691539287567, -0.1539766639471054, -0.18772737681865692, -0.09799554198980331, -0.06373916566371918, -0.32214558124542236, -0.9167241454124451, 0.08643639087677002, -0.05601219832897186, -0.16611498594284058, -0.0049440450966358185, -0.04243434965610504, 0.0405895859003067, -0.0087441336363554, -0.04009704291820526, -0.020367927849292755, -0.2566353380680084, 0.06361747533082962, -0.07605379819869995], [-1.7698261737823486, -3.374235153198242, -1.310197114944458, -9.78412914276123, 0.22382505238056183, -0.5120104551315308, 0.021080566570162773, 0.17813308537006378, 0.0831504836678505, -0.03032291866838932, -0.33492034673690796, 0.04356539994478226, -0.1400158852338791, 0.06960049271583557, -0.006560784764587879, -0.28767129778862, -0.23706108331680298, -1.3288851976394653, -3.5992813110351562, -1.1171802282333374, -0.9852223992347717, 0.061018191277980804, -0.47033753991127014, -0.05142790824174881, -0.09056101739406586, -2.575068950653076, -0.020049048587679863, -1.176194190979004, -0.00024418390239588916, -1.750909447669983, 0.04167293757200241, -3.2397735118865967, 0.03462836146354675, 0.04314006492495537, 0.24099260568618774, -0.005453421268612146, 0.33391445875167847, -2.5327248573303223, -0.005624474957585335, -0.17355498671531677, 0.058202438056468964, -0.2503267526626587, 0.40923282504081726, -2.9801971912384033, 0.07738287001848221, -0.45669394731521606, -0.1749640554189682, 0.024991516023874283, -0.04234802722930908, -0.06730195879936218, 0.010812325403094292, -0.059107474982738495, 0.22699712216854095, 0.10204407572746277, -0.06870981305837631, -0.04422207921743393, 0.017799945548176765, 0.06912469863891602, -1.357677936553955, -1.3331800699234009, 0.017566129565238953, 0.07607150077819824, -0.12842516601085663, -0.2833951711654663, -2.64969801902771, 0.05280715227127075, -0.5260668396949768, -0.051919061690568924, -0.6955594420433044, -1.1224548816680908, -0.7358653545379639, -0.10086073726415634, -0.8019809722900391, 0.07754894345998764, -0.057795364409685135, -0.7041786313056946, 0.06169816851615906, -0.013128637336194515, -0.023198889568448067, -0.09375341236591339, -0.1035909578204155, -6.362775802612305, 0.19065235555171967, -1.5087591409683228, 0.10562603920698166, -0.1034892126917839, -0.17913129925727844, -7.743673801422119, -0.007613374851644039, -0.14033640921115875, 0.036845188587903976, -0.07155079394578934, -0.16031251847743988, 0.019570937380194664, -0.016907216981053352, -2.574103593826294, -12.217823028564453, -0.01870207116007805, -0.12320175766944885, -0.7045321464538574, -0.07118459045886993, -1.1008187532424927, -4.305776119232178, 0.24454441666603088, -2.490009307861328, 0.4241577386856079, -1.656476616859436, 0.0065672509372234344, -0.07000377029180527, -0.17192064225673676, -2.1318118572235107, 0.5939041972160339, -4.406932353973389, -1.4016098976135254, -1.4673701524734497, -0.20599539577960968, -0.05487057939171791, -0.20089231431484222, -0.27251115441322327, 0.045515939593315125, -1.9731390476226807, -0.002911028452217579, 0.03998295217752457, 0.0014999468112364411, -0.06674384325742722, 0.08235219866037369, 0.8511440753936768, -0.29071006178855896], [2.4367549419403076, -0.703216016292572, 4.314480304718018, 0.6833834648132324, -0.0842990130186081, -0.3410733640193939, -0.23306059837341309, -0.29296666383743286, -0.07933682948350906, 0.008802169002592564, 2.1226255893707275, -0.09277217835187912, -0.02066775970160961, -0.03165102005004883, -0.0020326455123722553, -0.1198212206363678, -0.01756487786769867, 4.469335079193115, 9.647026062011719, 24.442598342895508, 13.186409950256348, -0.01474318839609623, 16.718997955322266, 0.5756825804710388, -0.09439276158809662, -7.850983142852783, -0.029022393748164177, 2.468047618865967, -0.06135221943259239, 13.9898042678833, -0.14932797849178314, -0.6536245942115784, -0.043370380997657776, -0.12418350577354431, -3.880823850631714, 0.03911084309220314, 6.883001804351807, 0.5589137673377991, -0.0798323005437851, 0.06646177172660828, 0.042611874639987946, -11.303662300109863, -0.11587803810834885, -4.155789375305176, 0.005871593486517668, 17.91983413696289, 0.06021967902779579, -0.03906281664967537, 0.004781717900186777, -0.07784776389598846, -0.016634201630949974, -0.059460751712322235, -4.1549577713012695, -0.10919079929590225, 0.0088411970064044, 0.06351813673973083, 0.0003240049700252712, -0.0878000259399414, -0.6739951372146606, 7.418724536895752, -0.08196764439344406, 0.018132278695702553, 0.1527433693408966, 11.788531303405762, 0.7326160669326782, -0.07503462582826614, -0.3430801033973694, -5.395081520080566, 3.4894723892211914, 3.179546594619751, -4.808302879333496, 0.005546329077333212, -0.1663932502269745, -0.9845436811447144, -0.014947685413062572, 6.974819660186768, 0.019862765446305275, -0.062174271792173386, 0.043228957802057266, 0.04529992863535881, 0.06650353968143463, 1.0155539512634277, 0.03526860848069191, -2.825913667678833, -0.023585155606269836, 13.768589973449707, 9.848812103271484, 0.9491720795631409, -0.16620026528835297, -0.004831455647945404, -0.0983884185552597, 0.04933970421552658, -0.045832742005586624, -0.018523918464779854, -0.0848502516746521, -1.6765096187591553, -0.088712677359581, -0.05825955793261528, -0.08285075426101685, 9.641702651977539, -0.08408209681510925, 0.8203473091125488, -0.5266153812408447, -0.6451330780982971, -8.62956714630127, -0.05198592320084572, 1.2001798152923584, -0.09871942549943924, 0.0018023572629317641, -10.004849433898926, -0.24576501548290253, -0.03552069887518883, 1.4137952327728271, 13.427238464355469, 1.6240838766098022, -0.17835789918899536, -0.02459438145160675, -0.03458549454808235, -0.26000359654426575, -0.022470908239483833, 0.07956914603710175, 0.036779023706912994, 0.06103828549385071, 0.14664265513420105, -0.14771512150764465, -2.696959972381592, 2.3992722034454346, -0.015265588648617268], [-0.0831763818860054, -0.034169312566518784, -0.2201486974954605, -0.0755925104022026, -0.12396179139614105, -0.00849462766200304, -0.03699580579996109, -0.01815982349216938, -0.03605630248785019, -0.06314581632614136, 0.07374969124794006, -0.1652780920267105, 0.0025318048428744078, 0.02221084013581276, -0.09954050928354263, -0.009546665474772453, -0.01408385206013918, -0.07737189531326294, -0.015588495880365372, -0.033809538930654526, -0.014293232001364231, 0.0801670029759407, -0.038850005716085434, 0.06162530928850174, -0.12768980860710144, -0.08790087699890137, -0.13337503373622894, -0.06680990010499954, -0.07572703063488007, -0.05858507752418518, -0.00205183494836092, -0.05821242555975914, 0.060649484395980835, -0.12473315745592117, -0.13058075308799744, 0.04808196797966957, -0.08838774263858795, -0.12786293029785156, -0.010965271852910519, -0.05170976743102074, -0.03373510017991066, -0.07246141880750656, -0.024600477889180183, -0.03799787536263466, -0.1319970190525055, -0.13850684463977814, 0.01780676282942295, -0.05327003449201584, -0.06153394654393196, 0.00567583367228508, -0.047534793615341187, 0.04520455002784729, -0.021040741354227066, -0.023375708609819412, 0.035084228962659836, 0.005418914835900068, -0.02465718425810337, -0.023787779733538628, -0.006688915658742189, -0.17175906896591187, -0.15107440948486328, -0.11510106921195984, -0.029656540602445602, -0.03242035582661629, -0.018629049882292747, -0.05248042568564415, 0.06507237255573273, -0.13842840492725372, -0.025908678770065308, 0.041670262813568115, -0.07692349702119827, -0.16447365283966064, -0.0766807496547699, -0.0609104223549366, -0.14481696486473083, -0.07983706891536713, -0.06430886685848236, 0.022209355607628822, -0.0873570665717125, 0.051240283995866776, -0.08893074840307236, -0.4880375862121582, -0.06196185201406479, -0.0485716387629509, -0.07329393923282623, -0.20517520606517792, -0.07473792880773544, -0.27733463048934937, 0.008422143757343292, -0.11923743039369583, -0.006211195141077042, 0.015758495777845383, -0.1168239638209343, 0.019101835787296295, -0.030694030225276947, -0.0036582937464118004, -0.3879254162311554, -0.05358385667204857, 0.0977114886045456, -0.14693430066108704, -0.057413164526224136, 0.008772175759077072, -0.21269424259662628, -0.0038216758985072374, 0.008768209256231785, -0.05501140281558037, -0.006907341536134481, -0.06346959620714188, -0.046412739902734756, -0.11475924402475357, 0.009401447139680386, -0.17086538672447205, -0.15808530151844025, -0.1279616802930832, 0.08116074651479721, -0.009031637571752071, -0.04052472859621048, -0.1687123328447342, -0.007134809158742428, 0.03156719729304314, -0.09437810629606247, -0.0716223195195198, 0.016815464943647385, -0.13429105281829834, -0.08220609277486801, -0.16402432322502136, -0.12519849836826324, -0.02780718356370926], [-1.6935135126113892, -3.260200023651123, -1.6813989877700806, -2.542402744293213, -0.06964024156332016, -0.08750497549772263, 0.00552598899230361, -0.014094065874814987, 0.04824352636933327, 0.05195651575922966, 0.04736701771616936, -0.035414401441812515, 0.005767031107097864, 0.0075515033677220345, 0.014550160616636276, -0.1629381775856018, -0.00654594274237752, -0.2265271544456482, -0.0960826426744461, -1.0357965230941772, -1.4586453437805176, 0.02023184671998024, -0.7800450921058655, -0.06598677486181259, -0.1353331059217453, 0.584399402141571, 0.01706574112176895, -0.02219420298933983, -0.04301240295171738, 0.07598160952329636, 0.11952729523181915, -0.623310923576355, -0.010976478457450867, -0.11946184933185577, -0.2958757281303406, -0.019798291847109795, 0.05904066190123558, -1.4875109195709229, -0.04502411559224129, 0.04587816074490547, 0.09402966499328613, -1.6750365495681763, 0.1837330311536789, -2.187729835510254, -0.12855279445648193, -0.3254643380641937, -0.020350562408566475, -0.09575225412845612, -0.03571523725986481, 0.008851605467498302, 0.018818330019712448, -0.013137689791619778, 0.10001455992460251, -0.12526246905326843, -0.04130293056368828, 0.4346354603767395, -0.1398291140794754, -0.12618868052959442, -0.23830972611904144, -0.2962940037250519, -0.04285639151930809, 0.02305631712079048, -0.007112319115549326, -0.09641758352518082, -1.7004358768463135, -0.08601721376180649, -0.22645528614521027, 0.3860473334789276, -0.6174088716506958, 0.5991073250770569, -0.06967663019895554, -0.1204553171992302, -0.18661577999591827, -0.6873290538787842, 0.03013751655817032, 2.472461223602295, 0.05948968231678009, 0.10583978146314621, 0.006212750915437937, -0.062303926795721054, -0.09873566776514053, -1.184674620628357, -0.07121175527572632, 0.35507553815841675, -0.239384263753891, -0.7533814311027527, -1.0619198083877563, -0.8525856733322144, -0.04131263867020607, -0.15469151735305786, -0.06817395240068436, 0.061897728592157364, -0.059497978538274765, 0.027622390538454056, -0.0346420593559742, -1.2216862440109253, -3.1353626251220703, -0.08279433101415634, -0.11694981157779694, -0.1889047622680664, -0.24832390248775482, -0.21499691903591156, -3.4691922664642334, -0.3157699704170227, -0.2877868413925171, -0.3651897609233856, 0.9974393248558044, 0.019848156720399857, 0.05408068373799324, -1.4634135961532593, 0.36078310012817383, 0.012368381023406982, -2.0577943325042725, 0.0674457997083664, -0.7743070125579834, -0.19140787422657013, -0.09220664948225021, -0.08596047759056091, -0.46620479226112366, -0.019010622054338455, -0.5632947087287903, 0.029683792963624, -0.1660614162683487, -0.015540409833192825, -0.1676671802997589, -0.6365081667900085, 0.9552828073501587, 0.005690209101885557], [-1.790347695350647, 0.7292197942733765, 11.714290618896484, -0.8132497072219849, -0.07066211849451065, -0.7552301287651062, -0.053130894899368286, -0.1243840679526329, 0.006492353044450283, 0.0071378848515450954, 1.978144884109497, -0.12092774361371994, 0.6857941150665283, 0.013810331001877785, -0.012402508407831192, -0.127439945936203, 0.04874188080430031, 18.31045150756836, 10.39462947845459, 15.28189754486084, 11.844818115234375, -0.0012381268898025155, 9.68346881866455, 0.31283068656921387, -0.5607379078865051, -9.274435997009277, 0.06845369935035706, 2.0642192363739014, 0.03948097303509712, 0.658658504486084, 0.5703926682472229, -1.6171555519104004, -0.03273480385541916, -0.010373161174356937, 0.16186285018920898, 0.06776697188615799, 10.298079490661621, -3.6430470943450928, 0.15061703324317932, 0.5228371024131775, 0.12051505595445633, -3.3067128658294678, 0.9043532609939575, -7.1050124168396, -0.072031669318676, 11.193552017211914, 0.04539976269006729, 0.12063951790332794, -0.0199736338108778, -0.1617833822965622, 0.07954827696084976, 0.45426300168037415, -7.92230749130249, -0.1404261589050293, -0.004259581211954355, -0.25936171412467957, 0.0021049482747912407, -0.0067359586246311665, 1.0078192949295044, 12.482933044433594, 0.016949595883488655, -0.13681526482105255, 0.4945407509803772, 5.953583717346191, -3.4423532485961914, -0.012447021901607513, 1.213996410369873, -0.21587957441806793, 4.092010974884033, 9.948667526245117, -1.785427212715149, 0.32232972979545593, -1.0418983697891235, 0.5523212552070618, -0.20009681582450867, 9.358957290649414, -0.055035028606653214, -0.06083989143371582, 0.03144122287631035, -0.04407164081931114, -0.03243487700819969, -1.7903155088424683, 0.086714006960392, -4.39760160446167, -0.13733738660812378, 7.056084632873535, 10.54947566986084, -0.93068927526474, 0.0550537146627903, -0.05532063916325569, -0.036627911031246185, -0.0036651953123509884, 0.20811714231967926, 0.0656697079539299, -0.10279525816440582, -4.024851322174072, -1.9771567583084106, -0.10450571775436401, 0.10846097767353058, 11.034375190734863, -0.03123137727379799, 4.307797908782959, -3.1839675903320312, -0.7393065094947815, -4.354590892791748, 0.46458524465560913, 2.4508109092712402, -0.254890501499176, 0.29311689734458923, -9.404281616210938, 1.3857818841934204, 0.453386127948761, 2.3832755088806152, 12.708817481994629, -1.1222777366638184, -0.08049305528402328, -0.04894166439771652, 0.1262272447347641, -0.31076160073280334, 0.03727700188755989, 0.23978625237941742, -0.07978636026382446, 0.045210108160972595, -0.4728294610977173, 0.31007692217826843, 4.623226165771484, -1.1429286003112793, 0.2677226960659027], [-2.782188892364502, 0.4399549067020416, 1.7826783657073975, -3.154705286026001, 0.23432770371437073, -0.07862328737974167, -0.05805639922618866, -0.07708323746919632, -0.010640446096658707, 0.005154190119355917, 1.3119415044784546, -0.1521565020084381, 0.012722908519208431, -0.05548076331615448, -0.01873108185827732, -0.07172694057226181, -0.06077573075890541, 3.127298593521118, 0.3127446174621582, 2.0986788272857666, 2.5369982719421387, -0.08926545828580856, 2.7182765007019043, -0.20394982397556305, -0.06612197309732437, 3.5663836002349854, -0.004775508772581816, -0.24074585735797882, 0.07003439962863922, 2.4085240364074707, 1.0461336374282837, 0.4313598871231079, -0.01650736853480339, 0.04534371569752693, -0.03572168946266174, 0.031875718384981155, 2.4093079566955566, -3.9421753883361816, 0.4466269016265869, 0.06899081915616989, -0.04583118110895157, 4.346450328826904, 0.11991041898727417, -2.6685376167297363, -0.20205573737621307, 1.3137726783752441, 0.09953213483095169, -0.03058415837585926, -0.2876025438308716, 0.07312905788421631, -0.036976754665374756, 0.08258853107690811, 6.045970916748047, 0.04876144975423813, 0.03159480169415474, -0.3535180389881134, 0.008422737941145897, 0.10626956075429916, -0.25052911043167114, 1.978204607963562, 0.0581517368555069, 0.030193211510777473, -0.499682754278183, -0.6701701283454895, 2.056730270385742, 0.12275880575180054, -0.13140609860420227, 0.5032749772071838, 0.7819284200668335, 0.4368509352207184, 6.775635242462158, 0.05170050263404846, -0.07974301278591156, -0.052173078060150146, -0.05097777396440506, 0.11287951469421387, -0.0036288585979491472, -0.19480876624584198, -0.08820340782403946, -0.1947602927684784, 0.2684505879878998, 0.8650166988372803, 0.0157952681183815, 5.401555061340332, -0.11049202084541321, 3.344527244567871, 5.658682823181152, -3.7245538234710693, 0.31732237339019775, 0.3924906849861145, 0.018777571618556976, 0.11694829165935516, -0.0744294822216034, -0.02759341523051262, 0.0771753266453743, 2.0392937660217285, -1.6215298175811768, 0.06903240829706192, 0.07182872295379639, 6.333986759185791, 0.0605369471013546, 4.276065349578857, -4.666024684906006, 1.088807225227356, 0.5322593450546265, 0.07397104054689407, 0.7137818932533264, -0.0050458586774766445, -0.29434674978256226, -2.070915460586548, -1.312161922454834, 0.4175882935523987, 1.4332014322280884, 1.9411154985427856, -0.7213792204856873, 0.2922743558883667, 0.06812317669391632, -0.3011319041252136, 0.02254503220319748, 0.006477375980466604, 1.1997772455215454, 0.5090621113777161, -0.05300731584429741, -0.02099195495247841, -0.4209830164909363, -2.8619229793548584, 2.0071208477020264, -0.17916831374168396], [-0.0025436747819185257, -0.24629469215869904, -0.9308826327323914, -0.7835254073143005, -0.001080575748346746, -0.2610384523868561, -0.008293624967336655, -0.03426836058497429, 0.020814010873436928, 0.054523807018995285, 0.014251322485506535, -0.02995491959154606, -0.13290731608867645, 0.011261837556958199, -0.01355451438575983, -0.000588100403547287, -0.12961246073246002, 0.1973193883895874, -0.6900789737701416, -0.08092452585697174, -0.49961912631988525, -0.012254343368113041, 0.033875562250614166, -0.14341850578784943, 0.010937632992863655, -0.015970369800925255, -0.1250031739473343, -0.02902534045279026, 0.0561937615275383, -0.032047536224126816, -0.06140764057636261, -0.062273696064949036, 0.0563749298453331, -0.06666911393404007, -0.05351785942912102, 0.057948753237724304, -0.07324274629354477, -0.22285096347332, -0.01681213453412056, -0.009151850827038288, -0.03126688301563263, -0.08622751384973526, -0.15661071240901947, -0.08865143358707428, 0.0549282468855381, -0.4243110418319702, -0.038824412971735, 0.02163623832166195, 0.06187613680958748, -0.0015038265846669674, 0.1451103240251541, 0.10947636514902115, -0.21867051720619202, 0.005382811184972525, -4.918316335533746e-06, -0.42650479078292847, -0.09819122403860092, -0.10250463336706161, -0.07194358110427856, 0.012464755214750767, -0.024075444787740707, -0.11838818341493607, -0.3431069254875183, -0.05974466726183891, -0.36843186616897583, 0.020340561866760254, -0.0031559874769300222, -0.3817461133003235, -0.3538552522659302, -0.5144753456115723, 0.0008126024040393531, -0.12676024436950684, -0.23591433465480804, -0.0940660834312439, -0.06759757548570633, -0.25483986735343933, -0.04487062990665436, 0.06084219738841057, 0.0640784353017807, -0.01786639727652073, -0.013560282997786999, -0.6725801229476929, 0.06722695380449295, -0.3577331602573395, -0.21122527122497559, -0.10387127846479416, -0.061685968190431595, -0.22168868780136108, 0.013505701906979084, 0.013607900589704514, -0.06530576199293137, 0.022726086899638176, -0.04686939716339111, 0.011909888125956059, -0.06593293696641922, -0.3647877275943756, -0.9665151834487915, -0.019789038226008415, -0.1263318806886673, 0.09051518887281418, 0.026254430413246155, -0.40144580602645874, -0.9587743282318115, 0.06998831033706665, -0.7915222644805908, -0.06730479747056961, -0.14991185069084167, -0.015790598466992378, -0.0537867546081543, -0.2710273265838623, -0.010960162617266178, -0.15617254376411438, -0.13559475541114807, -0.4191337823867798, -0.3445228636264801, -0.2331952601671219, -0.0194215290248394, -0.0029512078035622835, -0.19088807702064514, -0.07723632454872131, 0.13488836586475372, 0.08523409813642502, -0.0869862362742424, -0.016602028161287308, -0.2589804530143738, -0.06072353571653366, -0.03684038668870926, -0.3733503520488739], [-0.2607208788394928, -1.9819432497024536, -0.34592676162719727, -2.089099884033203, 0.011906107887625694, -0.30764877796173096, 0.5952755808830261, -0.032815925776958466, -0.05726062133908272, 0.05917772650718689, -0.337447851896286, -0.1439353972673416, -0.002763971220701933, -0.03886398673057556, -0.0051608337089419365, -0.08736240118741989, -0.01826140657067299, 0.14946164190769196, 0.21801753342151642, 0.2694763243198395, -0.003992652054876089, -0.061355601996183395, -0.3281897008419037, -0.5938786864280701, -0.3705098032951355, 0.4922342002391815, -0.030052179470658302, -0.6079210042953491, 0.06153286248445511, -1.1508879661560059, 0.9077048897743225, 0.3795592784881592, -0.06762497127056122, -0.009103583171963692, -0.5203462839126587, 0.19144095480442047, -1.1421715021133423, -0.10469570755958557, 0.07674509286880493, 0.29009348154067993, 0.03615483269095421, 0.14120209217071533, -0.3456151485443115, -1.7000175714492798, -0.10883437097072601, -1.9288387298583984, 0.01240086555480957, 0.0069735669530928135, 0.18481291830539703, -0.10326115787029266, -0.18974806368350983, -0.30472660064697266, -0.030521033331751823, -0.02559792250394821, 0.08161848783493042, 0.2541145980358124, -0.22917313873767853, -0.10398004204034805, 0.2741040885448456, -1.9157015085220337, -0.2937270402908325, 0.031755056232213974, -0.1418372392654419, -0.4297616481781006, -1.0665100812911987, -0.07763025164604187, 0.34487953782081604, -1.759300947189331, 0.16009902954101562, -0.32146528363227844, -0.41910505294799805, 0.002389471745118499, -0.011844135820865631, -0.22356781363487244, -0.026584932580590248, 0.6651626229286194, -0.09510428458452225, -0.053655631840229034, 0.21685101091861725, 0.30779731273651123, 0.010477181524038315, -2.480848789215088, -0.004773846827447414, -1.4094542264938354, 0.001039391034282744, 0.3582969605922699, -0.23768554627895355, -0.7531707882881165, 0.33535516262054443, -0.6907947063446045, -0.10015960782766342, -0.038903847336769104, 0.10850212723016739, -0.052211400121450424, -0.01828913949429989, -0.8056750297546387, -1.2420055866241455, 0.022748451679944992, -0.052671559154987335, -0.20508354902267456, 0.05094587430357933, -0.2698000371456146, -0.8156594634056091, -0.35739225149154663, 0.06645780056715012, -0.526711106300354, 0.0818440243601799, 0.3399457633495331, 