{"network_layers.0.weight": [[0.0835462138056755, 1.7733582258224487, -0.19534508883953094, 1.186974048614502, -1.7634576559066772, -0.7333378195762634, -0.035302210599184036, -0.6235453486442566, -0.5615811347961426, 0.6166735291481018], [-0.05949386954307556, -0.022032558917999268, -0.11632715165615082, -0.25942206382751465, 0.024904876947402954, -0.02300819754600525, 0.02302873134613037, -0.2664780020713806, -0.15281462669372559, -0.31602743268013], [-0.5232203602790833, -0.5991676449775696, -0.46577224135398865, -0.3367215692996979, -1.5835778713226318, 0.11361544579267502, 0.5926445722579956, 0.7240323424339294, 0.7948758006095886, 1.1123073101043701], [0.5240412950515747, 0.6804778575897217, 0.5487095713615417, -0.027949368581175804, 1.8396507501602173, -0.5059654712677002, -0.5987067222595215, -0.7730353474617004, -0.479847252368927, -2.2240030765533447], [0.07720058411359787, 0.5556778311729431, 0.8916746973991394, 1.6139966249465942, -0.37785202264785767, -0.22414833307266235, -0.6117239594459534, -1.1116231679916382, -1.5470991134643555, -0.055655837059020996], [-0.22095566987991333, -0.10391230881214142, -0.23576264083385468, -0.12382767349481583, -0.25630590319633484, 0.060403138399124146, -0.14738652110099792, 0.00045752525329589844, -0.03004075028002262, 0.09861913323402405], [-0.16939502954483032, -0.5071628093719482, -0.014606118202209473, -0.9348449110984802, -1.9472585916519165, 0.08979513496160507, 1.349395513534546, -1.462774395942688, 0.2637951970100403, 0.28675219416618347], [0.03169285133481026, -1.8387447595596313, 1.148908019065857, 0.12342995405197144, -0.9288035035133362, 0.47649461030960083, -1.4462072849273682, -1.275080919265747, 0.7157065868377686, -1.5827198028564453], [-0.0723419189453125, 0.2660738229751587, -0.7701358795166016, 0.7961183786392212, -1.2236155271530151, -0.18522565066814423, 0.12401970475912094, -1.03941810131073, 1.6703599691390991, -2.07700514793396], [-0.9479361772537231, 0.1504874974489212, -0.7029911875724792, 0.1878720223903656, 0.5101093649864197, 0.741692304611206, -0.29657360911369324, 0.5572783350944519, -0.29033905267715454, -0.1414242684841156], [0.7459110021591187, -0.2200719267129898, -3.0910143852233887, -0.011456438340246677, 1.2735921144485474, -0.36498191952705383, -1.5568962097167969, 0.5824578404426575, -0.9596934914588928, -0.3941703140735626], [0.6467354893684387, -0.4431658089160919, -1.050262212753296, -1.1071233749389648, -0.5265249013900757, -0.9274271726608276, 0.4410511255264282, 0.36729252338409424, 0.9219084978103638, 1.9707292318344116], [0.5735456347465515, 0.006028166506439447, 0.9279024600982666, 1.037092924118042, 0.5684172511100769, -0.40414154529571533, 0.14237363636493683, -0.7612175941467285, 0.4020465314388275, -1.73845374584198], [-0.9469741582870483, 0.7134922742843628, 0.13258793950080872, 0.353912889957428, -1.06397545337677, 0.162619486451149, -0.06787161529064178, 1.4020100831985474, -0.6387807726860046, 0.16347211599349976], [0.6429958343505859, -0.08669191598892212, 0.4348585307598114, -0.7739877700805664, 1.7690199613571167, -0.5462514758110046, -1.4105178117752075, -0.16072796285152435, 0.4110240936279297, 0.17163774371147156], [0.13733205199241638, -1.3745671510696411, -1.1278343200683594, 0.10818514972925186, -1.0405216217041016, 0.15102030336856842, -2.949134588241577, -0.35939791798591614, -0.20773892104625702, -0.36502599716186523]], "network_layers.0.bias": [0.7512869834899902, -0.07944163680076599, 1.8309577703475952, 0.8574745655059814, 1.2529252767562866, -0.318352609872818, 2.1900441646575928, 0.2191048115491867, 0.39387819170951843, 1.3150813579559326, 0.16247794032096863, -0.31672289967536926, -0.6538309454917908, 1.2560348510742188, -0.894507646560669, 2.4958393573760986], "network_layers.2.weight": [[-1.2287023067474365, 0.17592018842697144, 1.2552682161331177, -0.7651897668838501, -2.4609522819519043, 0.07497671246528625, 2.1366379261016846, 0.5735179781913757, 0.5864299535751343, 0.003037214046344161, 0.5997982621192932, 1.168217420578003, -1.0817515850067139, -0.5303332805633545, -1.316974401473999, -0.2751632630825043], [5.046494483947754, -0.095854252576828, -0.2647404074668884, 2.842348575592041, 4.158514976501465, -0.24535249173641205, 1.2921093702316284, 0.6285255551338196, 0.06416882574558258, -0.25412967801094055, 1.3064144849777222, -1.332633376121521, 0.039955541491508484, 0.1518772691488266, -0.10419487953186035, 0.5429006814956665], [1.487502098083496, 0.24588435888290405, 1.4723142385482788, 0.34955430030822754, -0.3882245719432831, 0.035318583250045776, -0.4248605966567993, 0.5463594198226929, -3.2818589210510254, 1.31521475315094, 0.335923433303833, 3.6388697624206543, -0.17092104256153107, -1.0414408445358276, 0.736441433429718, -2.4283883571624756], [-2.262388229370117, 0.05781713128089905, 0.6258938312530518, -2.9576776027679443, -1.0168802738189697, 0.04354612156748772, 1.159192681312561, 1.1022450923919678, 0.9214348196983337, 0.6996582746505737, 0.9768753051757812, 5.155899524688721, -0.29914969205856323, -1.6355769634246826, 0.20754188299179077, -0.3918377161026001], [-4.325173854827881, -0.02805119752883911, -3.1540684700012207, -3.493981122970581, -1.4228508472442627, 0.02516961097717285, -0.622835636138916, 0.21008150279521942, -2.866313934326172, -0.9719677567481995, 0.6774911284446716, -2.521160364151001, -0.13834498822689056, 1.2637476921081543, 0.4186455309391022, 0.5572869181632996], [-0.05433286353945732, 0.09964591264724731, 0.5338332056999207, -0.7193524837493896, -1.5487276315689087, -0.09431304037570953, 0.5217611193656921, -0.5969433188438416, 1.062180995941162, 0.2809123694896698, -0.45616239309310913, 0.15429580211639404, -0.3509637415409088, -2.3209969997406006, -3.609739303588867, 0.0769711434841156], [-0.6310063004493713, 0.24853235483169556, -0.8689919114112854, 1.9240171909332275, 0.3838450312614441, 0.11960708349943161, 0.22356978058815002, 1.294951319694519, 0.18353623151779175, 2.310696840286255, 3.037825345993042, 1.0476961135864258, 0.41128459572792053, -0.17747701704502106, 0.054142698645591736, -1.1209478378295898], [-0.14400151371955872, 0.10126405954360962, 0.9461509585380554, 0.3500659465789795, -2.707939624786377, -0.15146546065807343, 1.7090522050857544, -0.21171201765537262, 0.5486024022102356, -1.394736409187317, -1.9402503967285156, -1.2119890451431274, -0.9262419939041138, 1.472832202911377, 0.9411119818687439, 1.5293887853622437]], "network_layers.2.bias": [0.45233744382858276, 0.373151570558548, -0.2943403720855713, 0.2453586459159851, -0.506879448890686, -0.8319655060768127, -0.11717099696397781, 0.35250717401504517], "network_layers.4.weight": [[-1.5041470527648926, 0.8506506681442261, 1.3996515274047852, -1.3654431104660034, -2.9106287956237793, 2.0870494842529297, 0.7868524193763733, -3.2588393688201904], [3.165930986404419, -1.3402682542800903, 0.5113857984542847, 0.44034111499786377, 0.4051089584827423, 1.6303367614746094, 0.6210967302322388, 0.19479648768901825], [-3.0054705142974854, 0.9844052791595459, -7.788741588592529, 1.7273191213607788, 4.0869879722595215, -3.427072048187256, -2.4368650913238525, 2.3697755336761475]], "network_layers.4.bias": [-0.6460538506507874, 0.14556850492954254, 0.8954229950904846]}